0.009277344,-0.044921875,-0.05078125,0.03125,0.0025634766,0.01953125,0.041015625,0.0234375,0.0053710938,-0.026367188,-0.015625,-0.1953125,0.033203125,-0.078125,-0.041015625,0.06640625,-0.03125,0.044921875,-0.03515625,0.12109375,0.01171875,-0.028320312,-0.024414062,-0.01953125,0.014160156,0.046875,-0.020507812,0.007080078,0.06640625,-0.013183594,0.018554688,-0.05078125,0.021484375,-0.07421875,0.03125,0.01171875,0.005859375,-0.0014648438,-0.09375,-0.041015625,0.046875,-0.11328125,0.015625,-0.0390625,-0.025390625,-0.044921875,0.0034179688,-0.015625,-0.09765625,0.020507812,-0.001953125,-0.0390625,-0.030273438,-0.04296875,-0.078125,0.041015625,-0.048828125,-0.0703125,0.05078125,0.014160156,0.04296875,0.030273438,-0.0390625,0.05078125,0.029296875,0.0028076172,-0.004638672,-0.041015625,-0.0859375,0.056640625,0.01953125,0.0020751953,0.021484375,0.010253906,-0.021484375,-0.022460938,-0.0703125,0.048828125,-0.044921875,-0.04296875,0.017578125,-0.046875,-0.03125,-0.001953125,0.07421875,0.060546875,0.001953125,-0.11328125,0.0107421875,0.02734375,-0.0703125,-0.09375,0.010253906,0.007080078,0.03515625,-0.03515625,-0.1484375,0.028320312,-0.00061035156,0.0625,-0.09375,0.01953125,-0.010253906,-0.041015625,-0.033203125,0.03515625,0.015136719,-0.026367188,0.046875,-0.0625,0.041015625,0.056640625,0.017578125,-0.06640625,-0.0625,0.04296875,-0.08984375,-0.0126953125,-0.060546875,0.016601562,-0.0029296875,0.0625,0.0703125,0.012207031,-0.0068359375,0.0087890625,0.0703125,-0.015625,0.029296875,0.0024414062,-0.048828125,0.037109375,-0.06640625,-0.05859375,0.0625,-0.06640625,0.003540039,-0.008300781,0.1171875,0.03515625,0.001953125,-0.024414062,-0.030273438,-0.0036621094,-0.05078125,0.033203125,-0.0068359375,-0.046875,0.1328125,0.0390625,0.037109375,-0.0053710938,0.002319336,-0.024414062,-0.07421875,0.1640625,-0.06640625,-0.016601562,-0.1015625,-0.0390625,-0.009277344,0.001953125,-0.03125,0.012207031,-0.021484375,-0.0068359375,0.001953125,-0.028320312,0.1484375,0.017578125,0.07421875,0.0010375977,-0.0234375,0.078125,0.0390625,-0.018554688,0.09765625,-0.06640625,-0.0390625,-0.044921875,-0.029296875,-0.1015625,0.017578125,-0.03125,-0.009765625,0.04296875,-0.033203125,0.041015625,-0.0390625,0.018554688,-0.048828125,0.1328125,-0.020507812,-0.07421875,-0.001953125,-0.03125,0.0546875,0.030273438,-0.1796875,0.05859375,0.05859375,-0.013183594,-0.08203125,0.041015625,0.056640625,-0.05078125,0.07421875,-0.0625,-0.060546875,0.03515625,-0.06640625,-0.05078125,-0.005126953,0.033203125,-0.1015625,0.05859375,-0.021484375,0.056640625,0.0025634766,0.0126953125,-0.06640625,-0.0625,0.04296875,-0.001159668,0.0043945312,0.052734375,0.06640625,0.09375,-0.0546875,0.15625,0.05859375,-0.0703125,0.03125,0.033203125,-0.0859375,0.12109375,-0.060546875,-0.016601562,0.0025634766,0.021484375,-0.11328125,-0.0859375,0.044921875,0.037109375,-0.1328125,-0.024414062,0.0703125,-0.0234375,0.005859375,0.030273438,0.01953125,-0.08984375,0.033203125,0.004638672,0.005859375,-0.0015869141,-0.022460938,0.07421875,0.0032958984,-0.0625,-0.078125,0.09375,-0.018554688,0.001953125,0.08984375,-0.041015625,0.013671875,0.033203125,0.013183594,-0.056640625,0.0390625,-0.07421875,0.056640625,0.0625,-0.041015625,0.1015625,-0.0234375,-0.01953125,-0.028320312,0.08984375,0.0859375,-0.0390625,0.0146484375,-0.10546875,0.016601562,0.041015625,-0.0546875,0.020507812,0.0234375,0.056640625,-0.0009765625,0.028320312,-0.0041503906,0.033203125,0.0390625,0.02734375,0.056640625,0.020507812,0.1640625,-0.03125,0.024414062,-0.0030517578,0.048828125,0.006591797,-0.0859375,-0.017578125,0.021484375,0.021484375,0.015625,0.10546875,-0.022460938,-0.033203125,0.016601562,0.0013427734,0.10546875,-0.03515625,0.024414062,0.025390625,0.125,-0.056640625,0.01953125,-0.0048828125,0.015625,0.041015625,-0.025390625,0.026367188,-0.044921875,0.020507812,0.006591797,0.08984375,0.1015625,-0.009765625,-0.041015625,-0.056640625,0.056640625,-0.026367188,-0.001953125,0.04296875,0.046875,-0.109375,-0.046875,-0.030273438,0.017578125,-0.03125,-0.07421875,-0.052734375,0.0043945312,0.05078125,-0.05859375,-0.04296875,0.078125,-0.037109375,-0.078125,0.08984375,0.03125,-0.030273438,-0.1328125,-0.060546875,-0.020507812,0.041015625,0.044921875,0.0703125,-0.0087890625,-0.048828125,0.037109375,-0.017578125,-0.016601562,-0.044921875,-0.0703125,0.009277344,0.10546875,-0.002319336,0.0078125,-0.048828125,-0.109375,0.03515625,0.08984375,0.0087890625,0.009765625,-0.0234375,0.02734375,-0.037109375,0.0107421875,0.052734375,0.001953125,-0.01953125,0.03515625,0.017578125,-0.015625,-0.05859375,0.0009765625,-0.04296875,-0.015136719,0.01953125,0.0703125,-0.05078125,-0.021484375,-0.0078125,-0.0546875,-0.00390625,0.0146484375,0.0234375,-0.048828125,0.03515625,-0.03515625,0.02734375,-0.01953125,0.1328125,-0.044921875,-0.046875,-0.0087890625,-0.020507812,0.022460938,-0.052734375,0.0026855469,-0.028320312,-0.003540039,0.046875,0.0625,0.06640625,-0.0546875,-0.07421875,0.001953125,-0.0703125,0.0234375,-0.005126953,-0.0234375,0.078125,-0.052734375,0.025390625,0.022460938,0.05859375,0.013183594,0.026367188,-0.0009765625,-0.044921875,-0.0859375,0.008300781,-0.0041503906,0.01171875,0.026367188,-0.03125,-0.018554688,-0.0026855469,0.001953125,-0.0024414062,0.0009765625,0.05859375,-0.030273438,0.012207031,-0.025390625,0.025390625,-0.024414062,-0.056640625,0.04296875,-0.024414062,-0.0390625,-0.044921875,-0.078125,-0.09375,-0.016601562,-0.026367188,0.018554688,0.0053710938,-0.048828125,-0.04296875,-0.0034179688,0.06640625,-0.033203125,-0.06640625,-0.0546875,-0.078125,0.017578125,-0.046875,-0.03515625,0.07421875,0.0126953125,0.048828125,-0.052734375,-0.109375,-0.037109375,-0.030273438,-0.0146484375,0.0859375,-0.044921875,0.09375,0.021484375,-0.06640625,-0.005126953,0.001953125,0.09375,-0.046875,-0.001953125,0.048828125,0.09375,-0.125,0.005126953,0.025390625,-0.11328125,-0.1328125,-0.052734375,0.07421875,-0.009765625,-0.060546875,-0.0703125,-0.018554688,0.0625,0.1328125,0.0009765625,-0.12109375,0.11328125,0.109375,-0.046875,-0.06640625,0.013671875,0.029296875,-0.0390625,0.012207031,-0.07421875,-0.06640625,-0.028320312,-0.056640625,-0.033203125,-0.09375,-0.06640625,-0.022460938,0.041015625,-0.10546875,0.041015625,0.009277344,0.00390625,-0.024414062,-0.052734375,-0.0063476562,0.0024414062,-0.01171875,0.028320312,0.00061035156,-0.06640625,-0.017578125,-0.016601562,0.020507812,-0.010253906,-0.015625,0.05859375,0.060546875,-0.016601562,0.014160156,-0.002319336,0.022460938,-0.08203125,0.026367188,-0.078125,0.048828125,0.0009765625,-0.026367188,0.0390625,-0.0068359375,0.046875,-0.024414062,0.05078125,0.022460938,-0.013671875,-0.0859375,0.0625,-0.05078125,-0.002319336,-0.0061035156,-0.016601562,0.014160156,-0.0009765625,-0.03515625,-0.03125,-0.016601562,0.029296875,-0.09375,-0.06640625,-0.09375,-0.078125,-0.03515625,-0.033203125,0.0021972656,-0.005126953,0.0234375,-0.0625,0.009765625,0.05859375,0.024414062,-0.15625,-0.03515625,0.0390625,-0.10546875,0.028320312,-0.016601562,0.0390625,0.028320312,0.009277344,0.052734375,-0.029296875,-0.09375,0.0234375,-0.140625,0.0078125,-0.05078125,0.001953125,-0.07421875,-0.048828125,-0.018554688,0.0020751953,0.048828125,0.0703125,0.05078125,-0.020507812,-0.0009765625,-0.021484375,-0.0031738281,-0.0041503906,-0.011230469,-0.056640625,-0.021484375,0.025390625,-0.030273438,0.021484375,0.0053710938,-0.022460938,0.016601562,0.0859375,-0.05859375,-0.044921875,0.022460938,0.015136719,-0.0009765625,-0.0625,0.052734375,-0.02734375,0.001953125,-0.028320312,0.022460938,-0.07421875,-0.018554688,0.017578125,-0.10546875,-0.08203125,-0.030273438,-0.07421875,0.009765625,-0.1953125,0.033203125,0.0703125,-0.026367188,0.022460938,0.013183594,-0.046875,0.026367188,-0.013183594,0.12109375,-0.08203125,0.012207031,-0.05859375,-0.033203125,-0.109375,0.03125,-0.0126953125,-0.046875,0.022460938,-0.06640625,0.08203125,-0.0390625,0.0073242188,-0.037109375,-0.014160156,-0.044921875,-0.0859375,0.056640625,0.056640625,-0.0107421875,0.125,-0.15625,-0.04296875,-0.009277344,-0.0703125,0.01953125,0.0087890625,0.0625,0.0625,-0.020507812,-0.016601562,-0.046875,-0.06640625,0.08203125,-0.060546875,0.060546875,0.0028076172,0.060546875,-0.078125,0.012207031,-0.044921875,0.078125,-0.016601562,0.05078125,-0.018554688,0.048828125,-0.046875,0.0025634766,-0.05078125,-0.04296875,0.08203125,0.0625,-0.016601562,0.009765625,0.05859375,0.01953125,-0.021484375,-0.0031738281,-0.037109375,-0.009277344,-0.022460938,-0.018554688,0.05078125,-0.06640625,-0.025390625,-0.06640625,0.140625,0.1015625,0.1640625,-0.026367188,-0.08203125,-0.041015625,-0.09375,-0.07421875,-0.033203125,0.001953125,-0.08203125,-0.0021972656,-0.022460938,-0.08203125,-0.029296875,-0.044921875,0.0087890625,0.09375,0.011230469,-0.08203125,0.03515625,0.025390625,0.011230469,0.033203125,-0.0859375,0.0546875,0.05859375,0.0087890625,-0.001953125,0.015625,-0.109375,-0.044921875,-0.09375,-0.08984375,-0.021484375,-0.09765625,0.016601562,-0.0029296875,0.078125,0.0390625,0.0546875,0.0041503906,-0.015625,-0.078125,-0.0024414062,0.016601562,-0.052734375,0.033203125,0.030273438,0.078125,0.0087890625,0.0546875,0.03515625,-0.0146484375,-0.0625,-0.056640625,-0.07421875,-0.025390625,-0.025390625,-0.008300781,-0.002319336,0.030273438,-0.01953125,0.078125,0.078125,-0.002319336,-0.033203125,0.08984375,0.026367188,-0.08203125,0.0034179688,-0.044921875,-0.041015625,-0.011230469,0.052734375,-0.04296875,-0.025390625,-0.011230469,0.013183594,0.1328125,-0.024414062,-0.1015625,-0.033203125,-0.009765625,0.015625,-0.0034179688,0.033203125,0.048828125,-0.0234375,-0.016601562,0.0703125,-0.078125,-0.07421875,0.07421875,-0.009765625,0.0075683594,-0.0390625,-0.0390625,-0.05078125,-0.013671875,-0.022460938,-0.001953125,-0.020507812,-0.030273438,-0.03125,0.0048828125,0.0075683594,0.052734375,0.033203125,-0.06640625,-0.046875,-0.026367188,0.008300781,-0.0625,-0.009277344,0.01953125,-0.0234375,0.08984375,0.01953125,-0.0056152344,-0.021484375,0.060546875,0.029296875,-0.0043945312,-0.05078125,0.07421875,-0.041015625,0.0075683594,-0.0546875,-0.0087890625,-0.018554688,-0.011230469,0.022460938,0.001953125,-0.015136719,0.0390625,-0.1328125,-0.0390625,0.060546875,0.06640625,0.06640625,-0.0068359375,-0.060546875,-0.04296875,0.041015625,0.04296875,-0.041015625,0.03125,-0.037109375,-0.0625,0.05859375,-0.052734375,0.017578125,-0.060546875,0.024414062,-0.0234375,0.037109375,0.026367188,-0.0078125,-0.007080078,-0.021484375,-0.022460938,-0.056640625,0.0029296875,0.030273438,-0.030273438,-0.013671875,0.018554688,-0.0107421875,0.0546875,-0.028320312,0.09375,-0.046875,0.03515625,-0.018554688,0.0703125,0.056640625,0.0625,0.0390625,-0.048828125,0.0063476562,-0.048828125,-0.015625,-0.015136719,-0.1015625,-0.012207031,-0.06640625,0.0625,-0.052734375,-0.03125,-0.021484375,0.021484375,0.012207031,-0.03515625,-0.04296875,0.05078125,-0.015625,0.06640625,-0.0703125,0.01953125,0.020507812,-0.012207031,-0.033203125,0.056640625,0.052734375,0.06640625,-0.017578125,0.1328125,0.0703125,0.025390625,-0.016601562,0.009277344,0.030273438,0.033203125,-0.0859375,0.005859375,-0.014160156,-0.001953125,-0.01171875,0.021484375,0.060546875,-0.03125,0.0087890625,0.022460938,-0.056640625,-0.052734375,0.03515625,-0.0625,0.0859375,0.037109375,-0.15625,-0.05859375,0.001953125,-0.060546875,-0.02734375,-0.0034179688,-0.037109375,-0.030273438
-0.041015625,0.0043945312,0.001953125,-0.0703125,0.0234375,0.015625,0.08203125,0.025390625,0.07421875,0.08203125,-0.02734375,0.021484375,0.0625,0.11328125,-0.07421875,-0.033203125,-0.060546875,-0.00390625,0.024414062,-0.01953125,0.037109375,0.0390625,-0.056640625,0.0625,0.0087890625,0.03515625,-0.0043945312,0.0390625,-0.05859375,-0.037109375,0.052734375,-0.046875,0.0146484375,-0.0078125,-0.08203125,0.0087890625,0.001953125,-0.0014648438,-0.01953125,-0.009277344,-0.0073242188,0.06640625,-0.028320312,-0.109375,0.0546875,0.020507812,-0.09765625,0.0056152344,-0.0390625,0.07421875,-0.07421875,-0.018554688,0.05078125,-0.060546875,0.07421875,-0.109375,-0.030273438,0.0031738281,-0.024414062,-0.018554688,0.056640625,0.048828125,0.0043945312,0.05859375,0.0546875,0.029296875,-0.08203125,-0.052734375,0.044921875,0.0703125,-0.03125,-0.024414062,-0.0012207031,0.009765625,0.015625,0.0009765625,-0.030273438,-0.015625,-0.041015625,0.037109375,-0.0625,-0.0390625,-0.013671875,-0.0056152344,-0.0546875,0.0546875,0.0390625,-0.030273438,-0.044921875,0.052734375,-0.001953125,-0.021484375,0.078125,0.011230469,-0.0859375,-0.028320312,0.021484375,0.021484375,0.0009765625,0.018554688,-0.0063476562,-0.01953125,-0.03515625,-0.0703125,-0.048828125,0.02734375,-0.028320312,-0.0546875,0.04296875,0.0034179688,-0.041015625,-0.037109375,-0.041015625,-0.0859375,-0.001953125,-0.09765625,0.02734375,-0.033203125,-0.037109375,0.056640625,0.0075683594,-0.012207031,-0.018554688,-0.001953125,-0.033203125,0.0009765625,-0.0703125,0.048828125,0.016601562,0.018554688,-0.048828125,0.03515625,-0.030273438,0.048828125,0.020507812,0.0625,0.001953125,0.020507812,-0.048828125,0.07421875,0.022460938,0.0390625,-0.041015625,-0.025390625,0.09765625,0.078125,0.0126953125,-0.05859375,0.03515625,-0.0030517578,-0.033203125,0.010253906,0.05078125,-0.018554688,0.0009765625,-0.07421875,0.1015625,0.06640625,-0.056640625,0.06640625,0.009765625,-0.002319336,-0.0234375,0.03125,0.026367188,-0.0625,-0.04296875,-0.022460938,0.044921875,-0.0063476562,0.018554688,-0.033203125,-0.0390625,0.029296875,-0.0859375,0.044921875,-0.022460938,-0.029296875,0.060546875,-0.06640625,-0.0043945312,0.021484375,0.0017700195,0.037109375,-0.04296875,-0.125,0.08203125,0.06640625,0.017578125,0.0032958984,-0.05859375,-0.0073242188,-0.0625,-0.1171875,0.024414062,-0.0107421875,-0.0390625,0.07421875,-0.125,0.03125,0.05078125,-0.052734375,0.046875,-0.05078125,0.09375,-0.008300781,0.0063476562,0.022460938,0.0048828125,0.048828125,-0.0546875,-0.037109375,-0.009765625,0.109375,-0.01171875,-0.01171875,0.041015625,-0.03515625,-0.0625,-0.0234375,-0.0031738281,-0.048828125,-0.025390625,0.0004119873,-0.018554688,-0.016601562,-0.005126953,-0.021484375,0.014160156,0.08203125,-0.0390625,-0.0390625,-0.0041503906,0.0048828125,0.0021972656,-0.008300781,0.01171875,-0.001953125,-0.056640625,-0.0041503906,0.005126953,-0.001953125,0.017578125,-0.09375,-0.001953125,-0.0390625,0.0859375,0.08203125,0.078125,-0.08203125,-0.12109375,0.060546875,-0.078125,0.022460938,0.056640625,-0.052734375,-0.0625,0.0703125,0.0018310547,-0.052734375,-0.030273438,-0.078125,-0.0859375,0.025390625,-0.009277344,0.021484375,0.044921875,0.07421875,-0.0390625,-0.08984375,-0.011230469,0.0053710938,0.017578125,0.06640625,0.01953125,-0.030273438,0.044921875,-0.060546875,-0.016601562,0.033203125,0.0087890625,0.0078125,0.03515625,-0.03515625,-0.0859375,0.0234375,-0.016601562,-0.05078125,-0.048828125,0.02734375,-0.03515625,0.037109375,0.03515625,-0.029296875,0.109375,0.003540039,-0.08203125,-0.0546875,-0.048828125,-0.009765625,-0.048828125,-0.037109375,0.022460938,-0.025390625,0.008300781,-0.020507812,-0.08203125,0.04296875,0.0703125,-0.0546875,-0.033203125,-0.05078125,0.11328125,0.03125,-0.020507812,-0.001953125,0.078125,-0.04296875,0.08203125,0.020507812,0.046875,0.08984375,0.056640625,0.01171875,0.0146484375,-0.060546875,0.044921875,0.037109375,0.03125,0.0703125,0.029296875,0.026367188,-0.001953125,0.0029296875,-0.03515625,0.07421875,-0.0703125,0.046875,0.009765625,0.046875,-0.0625,0.0029296875,-0.025390625,-0.033203125,0.029296875,-0.025390625,0.028320312,-0.052734375,0.0703125,0.012207031,-0.0032958984,-0.046875,-0.056640625,0.012207031,0.004638672,0.0625,-0.018554688,0.0126953125,0.03125,-0.060546875,-0.0390625,-0.078125,0.0087890625,-0.006591797,-0.09375,-0.026367188,0.011230469,-0.03515625,-0.0859375,0.06640625,0.028320312,-0.09375,0.0028076172,0.109375,-0.001953125,0.020507812,-0.0390625,-0.026367188,0.041015625,-0.05078125,-0.0625,-0.0546875,-0.021484375,-0.030273438,-0.06640625,0.0126953125,0.05078125,0.016601562,-0.11328125,-0.0107421875,-0.06640625,0.037109375,-0.046875,0.009765625,0.046875,0.026367188,0.025390625,0.1015625,-0.03515625,-0.0234375,0.078125,-0.015625,-0.03125,0.0107421875,0.09375,-0.024414062,0.0234375,-0.03515625,-0.0390625,0.018554688,-0.025390625,-0.008300781,-0.025390625,-0.018554688,0.0234375,0.03515625,-0.009277344,0.05859375,-0.0056152344,0.04296875,0.03515625,0.020507812,-0.026367188,0.0703125,-0.029296875,0.0087890625,-0.021484375,-0.03125,0.008300781,-0.0048828125,0.025390625,0.00390625,0.029296875,0.03515625,0.024414062,-0.010253906,-0.0021972656,0.014160156,-0.09765625,-0.10546875,0.013183594,-0.030273438,0.016601562,-0.125,0.020507812,-0.09375,0.024414062,-0.017578125,0.03515625,0.056640625,0.0390625,0.05078125,0.037109375,-0.03515625,0.001953125,-0.008300781,-0.06640625,-0.0546875,0.001953125,0.0048828125,0.024414062,0.026367188,-0.017578125,0.044921875,0.048828125,-0.048828125,0.030273438,-0.033203125,-0.025390625,0.01171875,0.015625,0.015625,0.10546875,-0.03515625,-0.052734375,0.005859375,-0.052734375,0.03515625,0.029296875,-0.01953125,0.033203125,-0.0390625,-0.022460938,-0.08203125,-0.010253906,-0.0546875,0.04296875,0.033203125,0.0107421875,-0.05078125,0.04296875,-0.10546875,0.044921875,-0.0078125,0.017578125,-0.0032958984,0.048828125,0.0075683594,-0.017578125,0.022460938,-0.037109375,0.0043945312,0.052734375,0.0390625,-0.037109375,0.052734375,0.024414062,0.09375,0.020507812,-0.00390625,0.0126953125,-0.052734375,-0.1328125,-0.001953125,-0.033203125,-0.056640625,0.052734375,0.07421875,0.0546875,0.020507812,0.0043945312,0.013183594,0.021484375,0.0061035156,0.0859375,0.022460938,-0.08984375,-0.021484375,-0.0037841797,0.0087890625,-0.024414062,-0.0703125,-0.021484375,0.010253906,-0.09765625,-0.05859375,-0.07421875,0.00032043457,-0.001953125,0.04296875,0.0625,0.026367188,0.044921875,-0.0625,-0.08984375,-0.013183594,0.0043945312,0.016601562,0.017578125,0.030273438,0.033203125,0.06640625,0.001953125,-0.041015625,0.0073242188,-0.015625,0.0625,0.0234375,-0.041015625,-0.015136719,-0.056640625,0.024414062,-0.0028076172,-0.037109375,-0.0043945312,-0.0546875,-0.052734375,-0.0703125,-0.060546875,-0.0126953125,-0.0087890625,-0.0073242188,-0.011230469,0.029296875,-0.048828125,0.0625,0.08984375,0.014160156,-0.025390625,-0.041015625,-0.109375,0.012207031,0.04296875,-0.03125,0.0234375,0.001953125,-0.030273438,-0.025390625,-0.1015625,-0.060546875,-0.021484375,-0.016601562,-0.060546875,0.020507812,-0.046875,-0.0703125,-0.0546875,0.0625,0.0009765625,-0.044921875,0.033203125,-0.01953125,0.08203125,-0.0390625,0.030273438,-0.0390625,-0.0009765625,-0.03515625,0.033203125,-0.078125,0.06640625,-0.028320312,0.0625,-0.0041503906,0.026367188,-0.018554688,-0.041015625,0.037109375,-0.08203125,-0.028320312,-0.005126953,-0.025390625,0.028320312,-0.0625,-0.04296875,-0.0029296875,-0.026367188,-0.044921875,0.001953125,0.0087890625,0.0703125,-0.029296875,-0.06640625,-0.0625,-0.037109375,-0.009765625,0.009765625,0.021484375,-0.048828125,0.0703125,0.06640625,-0.016601562,-0.05859375,-0.08203125,-0.046875,0.0061035156,-0.0390625,-0.037109375,0.078125,0.05859375,-0.046875,0.025390625,-0.015136719,-0.0043945312,-0.009765625,0.046875,-0.015625,-0.013183594,-0.056640625,-0.05859375,0.025390625,0.10546875,0.0056152344,0.0703125,-0.0859375,-0.09375,-0.0063476562,0.03515625,0.0020751953,-0.041015625,0.0390625,-0.017578125,-0.009765625,-0.0625,-0.012207031,-0.044921875,-0.12109375,0.008300781,0.06640625,-0.06640625,0.09765625,-0.024414062,0.015625,0.0703125,0.03515625,0.046875,-0.06640625,0.052734375,-0.041015625,-0.017578125,-0.078125,0.009765625,-0.078125,0.0859375,0.013671875,0.012207031,0.024414062,-0.06640625,-0.07421875,0.0020751953,-0.060546875,-0.0625,-0.033203125,0.0390625,0.041015625,-0.018554688,-0.020507812,0.08203125,0.01953125,-0.01171875,-0.0546875,0.03515625,0.046875,-0.109375,0.05078125,0.001953125,-0.020507812,0.018554688,0.0146484375,0.028320312,-0.05859375,-0.056640625,-0.0061035156,0.020507812,0.1015625,0.024414062,0.0126953125,0.013183594,-0.1015625,0.037109375,0.002319336,0.015136719,0.011230469,0.013671875,0.08203125,0.037109375,-0.0048828125,-0.03125,-0.0030517578,-0.0390625,-0.0036621094,-0.09765625,0.04296875,-0.044921875,-0.06640625,0.01953125,0.0043945312,0.026367188,-0.024414062,-0.001953125,0.0053710938,0.0009765625,-0.001953125,-0.0390625,0.0390625,0.056640625,-0.056640625,0.037109375,-0.0546875,0.015136719,-0.021484375,-0.07421875,0.009277344,-0.046875,0.0073242188,-0.001953125,-0.0859375,0.07421875,-0.021484375,-0.07421875,-0.029296875,0.0146484375,-0.0703125,0.078125,0.06640625,-0.022460938,0.0234375,0.0390625,-0.0009765625,0.011230469,-0.018554688,-0.012207031,-0.109375,0.026367188,0.03125,0.060546875,-0.022460938,0.001953125,-0.044921875,-0.033203125,0.0625,-0.05859375,0.015625,-0.0546875,0.009277344,-0.04296875,0.025390625,0.026367188,0.02734375,-0.037109375,0.06640625,-0.005859375,-0.044921875,-0.05859375,-0.0390625,0.11328125,-0.0009765625,0.0024414062,0.0056152344,0.037109375,0.011230469,-0.029296875,0.013183594,0.056640625,-0.041015625,0.044921875,0.021484375,-0.015625,0.005859375,0.056640625,-0.015625,-0.026367188,-0.046875,-0.015625,0.056640625,-0.05078125,-0.1328125,-0.02734375,-0.011230469,0.0021972656,-0.06640625,-0.001953125,0.024414062,0.018554688,-0.025390625,-0.028320312,-0.033203125,0.033203125,0.013671875,0.030273438,0.041015625,0.048828125,0.0390625,0.05859375,0.037109375,-0.0703125,-0.05078125,0.016601562,0.012207031,0.0087890625,0.013183594,-0.01953125,-0.0625,-0.022460938,-0.001953125,-0.020507812,0.014160156,-0.011230469,-0.007080078,-0.08203125,0.06640625,0.04296875,0.0063476562,0.0063476562,-0.018554688,0.005859375,-0.029296875,0.029296875,-0.07421875,0.0703125,0.0146484375,-0.0056152344,-0.001953125,0.10546875,-0.0234375,0.025390625,0.01953125,0.033203125,-0.026367188,-0.001953125,-0.026367188,-0.078125,0.03125,0.060546875,0.07421875,-0.0053710938,0.001953125,0.048828125,-0.015625,0.048828125,0.014160156,-0.009765625,0.037109375,0.0061035156,0.06640625,-0.004638672,0.03125,-0.0625,0.05859375,-0.03515625,-0.001953125,-0.020507812,0.028320312,0.01953125,-0.01953125,-0.06640625,-0.018554688,-0.046875,-0.018554688,0.09765625,0.009277344,0.06640625,-0.011230469,-0.0625,-0.07421875,-0.010253906,-0.029296875,0.056640625,-0.028320312,0.037109375,-0.021484375,0.013183594,-0.07421875,-0.0234375,-0.030273438,0.025390625,0.05078125,-0.03515625,-0.0390625,-0.0546875,0.0021972656,0.09375,-0.0859375,0.0026855469,0.0030517578,-0.024414062,-0.029296875,-0.0041503906,-0.026367188,-0.0703125,-0.06640625,-0.0043945312,0.046875,0.0063476562,-0.02734375,-0.005859375,0.03125,-0.07421875,0.022460938,-0.026367188,-0.10546875,-0.030273438,-0.052734375,0.0078125,-0.02734375,-0.017578125,-0.060546875,-0.0390625,0.001953125,0.029296875
-0.013671875,0.001953125,-0.056640625,0.008300781,-0.046875,0.025390625,-0.04296875,-0.078125,-0.08203125,-0.0625,0.0036621094,-0.0703125,-0.033203125,0.014160156,-0.022460938,-0.025390625,-0.024414062,0.0025634766,-0.0056152344,0.029296875,0.03125,0.017578125,-0.08984375,-0.12109375,-0.08984375,-0.109375,0.046875,-0.015136719,0.007080078,0.015625,-0.022460938,-0.0546875,-0.016601562,0.11328125,-0.002319336,0.009277344,0.048828125,0.030273438,-0.056640625,0.021484375,-0.171875,0.05078125,0.0075683594,0.0390625,0.0146484375,-0.109375,0.033203125,0.001953125,-0.015625,0.009765625,-0.048828125,-0.017578125,0.028320312,0.0146484375,-0.016601562,-0.044921875,-0.03515625,0.05859375,0.08984375,-0.1015625,0.0390625,-0.03125,-0.0625,-0.0041503906,-0.0107421875,0.017578125,0.018554688,0.041015625,0.0041503906,0.025390625,0.013183594,0.03515625,0.046875,-0.0703125,0.0078125,-0.0053710938,-0.03515625,0.1171875,0.029296875,-0.1015625,0.030273438,-0.014160156,-0.021484375,0.013671875,0.0041503906,0.0075683594,0.041015625,0.020507812,0.017578125,0.013671875,-0.021484375,0.012207031,-0.015625,-0.0063476562,-0.0056152344,-0.11328125,-0.046875,-0.0390625,-0.0010375977,-0.046875,-0.1328125,-0.1015625,0.056640625,-0.09375,0.0859375,-0.0703125,-0.0859375,-0.009277344,0.015136719,-0.1015625,-0.044921875,-0.017578125,-0.006591797,-0.09765625,0.013671875,-0.0078125,-0.0043945312,-0.08984375,-0.056640625,0.012207031,0.037109375,-0.078125,0.056640625,-0.0036621094,0.0625,0.018554688,-0.046875,-0.07421875,-0.10546875,-0.0390625,-0.04296875,0.0010375977,0.033203125,-0.033203125,0.07421875,0.09765625,0.0021972656,0.046875,0.0234375,0.05078125,0.017578125,-0.06640625,-0.041015625,-0.013671875,-0.048828125,0.0859375,-0.08203125,0.020507812,0.046875,-0.01171875,-0.125,-0.07421875,-0.05859375,0.029296875,0.0053710938,0.05078125,0.022460938,0.016601562,0.044921875,0.037109375,0.04296875,0.001953125,0.05078125,-0.04296875,-0.017578125,0.029296875,0.025390625,0.0390625,-0.109375,0.024414062,-0.06640625,-0.026367188,-0.05859375,0.0048828125,-0.0146484375,-0.018554688,0.078125,-0.09375,-0.1484375,-0.08984375,0.0859375,0.06640625,0.0859375,-0.0625,-0.056640625,-0.037109375,0.056640625,0.022460938,-0.0625,-0.140625,0.025390625,-0.09375,-0.07421875,-0.0078125,0.044921875,-0.03125,0.044921875,0.0390625,-0.018554688,0.017578125,0.06640625,-0.005859375,-0.08984375,0.04296875,0.052734375,-0.029296875,-0.109375,0.029296875,-0.048828125,0.11328125,0.048828125,0.078125,0.05859375,0.028320312,-0.016601562,-0.0625,0.06640625,0.07421875,0.06640625,-0.005126953,-0.028320312,-0.078125,0.05078125,-0.00091552734,-0.03125,-0.033203125,-0.044921875,-0.01171875,0.0048828125,0.02734375,0.09375,-0.060546875,0.015136719,-0.10546875,-0.0703125,-0.05859375,-0.029296875,0.1171875,-0.09375,0.0126953125,-0.06640625,-0.078125,-0.037109375,-0.020507812,0.001953125,-0.006591797,0.013183594,-0.0126953125,0.025390625,0.037109375,0.01953125,0.07421875,0.0625,0.044921875,0.0703125,0.07421875,-0.024414062,0.046875,-0.00024414062,-0.0859375,0.044921875,-0.013671875,-0.060546875,-0.041015625,-0.048828125,0.0546875,0.03515625,-0.04296875,0.1015625,-0.0056152344,-0.056640625,-0.056640625,-0.018554688,0.05859375,-0.052734375,-0.001953125,0.07421875,-0.056640625,0.0390625,0.020507812,0.060546875,0.005859375,0.0048828125,0.012207031,0.03125,0.0146484375,-0.078125,0.041015625,0.0625,-0.0061035156,-0.021484375,0.0048828125,-0.0625,-0.0859375,-0.037109375,0.01953125,0.04296875,-0.044921875,-0.09375,0.0546875,-0.08984375,-0.028320312,0.078125,0.025390625,-0.08984375,0.01171875,-0.0146484375,-0.048828125,-0.07421875,0.007080078,0.0087890625,-0.013183594,0.08203125,0.0546875,0.028320312,0.06640625,-0.0146484375,-0.0026855469,-0.078125,0.0234375,-0.02734375,-0.005126953,0.001953125,-0.1015625,-0.037109375,-0.012207031,-0.06640625,0.013183594,-0.125,0.07421875,0.0061035156,-0.08203125,-0.060546875,-0.022460938,-0.041015625,-0.046875,-0.005859375,0.021484375,0.04296875,-0.048828125,-0.05859375,-0.109375,0.016601562,0.0028076172,0.04296875,0.08203125,-0.0063476562,-0.018554688,-0.05078125,-0.013183594,0.09375,-0.05078125,-0.0087890625,0.05859375,-0.056640625,-0.11328125,0.002319336,0.048828125,-0.030273438,0.028320312,0.021484375,0.0021972656,-0.0146484375,-0.025390625,0.1171875,-0.015625,-0.030273438,-0.0026855469,0.07421875,-0.09765625,0.037109375,-0.078125,0.0005187988,0.06640625,0.013671875,-0.0030517578,0.001953125,0.025390625,0.022460938,0.08203125,0.020507812,-0.09375,-0.03125,-0.015625,-0.033203125,0.021484375,-0.033203125,-0.10546875,-0.0546875,-0.07421875,0.029296875,0.08203125,0.041015625,-0.0625,-0.037109375,0.024414062,0.020507812,0.0146484375,0.052734375,-0.0073242188,0.1015625,0.08203125,-0.0037841797,-0.0087890625,0.013183594,0.0390625,0.022460938,0.011230469,0.0859375,0.09375,-0.025390625,-0.02734375,0.022460938,-0.001953125,-0.056640625,-0.056640625,-0.022460938,0.046875,0.09375,0.018554688,0.017578125,-0.02734375,-0.01953125,0.005126953,0.03125,0.06640625,-0.005859375,0.013671875,-0.078125,-0.009765625,0.0625,0.04296875,0.041015625,0.02734375,0.0009765625,-0.078125,-0.05859375,0.017578125,0.056640625,0.052734375,0.06640625,0.09765625,0.01953125,0.08203125,-0.08203125,-0.052734375,-0.01953125,0.056640625,-0.0107421875,0.046875,-0.0043945312,0.021484375,0.017578125,0.048828125,0.060546875,-0.041015625,0.0546875,0.0390625,-0.0390625,0.0625,0.033203125,-0.1015625,0.0703125,-0.011230469,0.028320312,-0.044921875,0.024414062,-0.008300781,0.09375,0.0390625,0.08203125,0.0546875,-0.015625,-0.007080078,0.0053710938,0.0546875,0.04296875,0.010253906,-0.028320312,0.052734375,-0.029296875,0.056640625,-0.0859375,0.048828125,-0.03125,-0.052734375,-0.037109375,0.0546875,-0.0859375,0.014160156,-0.001953125,-0.0126953125,-0.10546875,-0.022460938,0.0087890625,0.09765625,-0.026367188,0.001953125,-0.029296875,-0.022460938,-0.0859375,0.03125,-0.078125,-0.0126953125,0.0078125,-0.0703125,0.0107421875,-0.037109375,0.024414062,0.0078125,-0.024414062,0.05078125,-0.017578125,-0.0234375,0.0056152344,0.0625,0.09375,-0.024414062,-0.028320312,-0.052734375,0.008300781,-0.0390625,-0.0056152344,0.001953125,0.044921875,-0.0068359375,-0.009765625,-0.03515625,0.03515625,-0.0546875,-0.009277344,-0.048828125,-0.11328125,-0.03515625,-0.007080078,-0.07421875,0.044921875,0.0012207031,-0.01953125,0.0703125,-0.0703125,-0.030273438,-0.020507812,0.030273438,0.01953125,0.12109375,-0.024414062,-0.01953125,0.08203125,-0.04296875,-0.004638672,0.03515625,-0.001953125,0.078125,-0.0703125,0.004638672,-0.020507812,0.08984375,0.07421875,-0.0703125,-0.02734375,0.037109375,-0.014160156,-0.0146484375,-0.048828125,0.0546875,-0.009277344,0.011230469,-0.016601562,-0.0390625,0.04296875,0.05859375,-0.01953125,-0.01171875,0.009765625,-0.06640625,0.08984375,0.060546875,0.0126953125,-0.04296875,0.029296875,0.026367188,0.11328125,0.009277344,-0.02734375,-0.025390625,0.001953125,-0.0625,-0.00390625,-0.046875,0.0234375,0.003540039,-0.041015625,-0.052734375,-0.033203125,-0.048828125,-0.0087890625,-0.0234375,-0.06640625,-0.028320312,-0.024414062,-0.05078125,-0.017578125,0.03515625,-0.05078125,0.04296875,0.0703125,0.0625,0.017578125,-0.025390625,0.09375,0.060546875,-0.020507812,-0.03125,-0.041015625,-0.01953125,-0.06640625,-0.09375,0.09375,-0.037109375,-0.0061035156,0.048828125,-0.04296875,0.033203125,0.09375,-0.05859375,-0.1171875,-0.03125,0.021484375,-0.02734375,-0.1484375,-0.05078125,0.046875,0.07421875,-0.033203125,-0.002319336,-0.05859375,0.041015625,0.0026855469,-0.028320312,-0.033203125,0.004638672,0.05078125,0.024414062,-0.109375,0.052734375,0.078125,0.08984375,0.0234375,-0.026367188,0.09375,-0.0068359375,0.046875,-0.11328125,0.04296875,-0.0028076172,-0.06640625,-0.05859375,0.018554688,-0.024414062,-0.025390625,0.0063476562,-0.037109375,-0.0061035156,0.10546875,-0.09765625,0.018554688,0.013671875,0.001953125,-0.05078125,-0.0068359375,-0.109375,0.025390625,-0.013671875,0.0703125,-0.09765625,-0.05078125,0.06640625,-0.0625,-0.060546875,0.0048828125,-0.052734375,0.0075683594,-0.020507812,0.109375,0.0234375,0.030273438,-0.021484375,-0.021484375,-0.022460938,0.0234375,-0.0390625,0.041015625,-0.08203125,-0.009765625,-0.030273438,0.0028076172,0.016601562,0.1328125,-0.033203125,-0.0037841797,-0.017578125,-0.08984375,-0.0859375,0.04296875,-0.0859375,-0.06640625,0.0234375,0.037109375,-0.03515625,-0.0703125,0.04296875,0.022460938,0.03125,-0.0126953125,-0.010253906,0.0625,-0.10546875,-0.018554688,-0.03125,-0.025390625,0.0009765625,-0.0859375,0.046875,-0.0703125,-0.08203125,-0.06640625,-0.05859375,0.0043945312,0.08203125,-0.0061035156,-0.0146484375,-0.041015625,0.056640625,0.001953125,-0.03515625,0.04296875,0.046875,0.037109375,0.05859375,-0.046875,-0.078125,-0.03125,-0.015136719,0.011230469,-0.022460938,-0.109375,-0.125,0.09765625,0.07421875,-0.020507812,0.0625,0.001953125,0.01171875,0.0061035156,-0.0234375,-0.0078125,0.1015625,-0.08203125,-0.024414062,-0.125,0.01953125,0.046875,0.0703125,-0.0126953125,-0.03515625,-0.07421875,0.0061035156,0.001953125,0.09765625,0.044921875,-0.002319336,0.05078125,-0.033203125,-0.06640625,-0.033203125,-0.013183594,0.060546875,0.0068359375,0.03515625,0.140625,0.033203125,0.013183594,0.0030517578,0.041015625,-0.09375,-0.05078125,-0.001953125,-0.05859375,0.0068359375,0.020507812,0.07421875,-0.0073242188,0.0043945312,-0.046875,0.0048828125,0.015136719,-0.016601562,-0.021484375,-0.10546875,-0.048828125,0.026367188,0.016601562,0.07421875,0.10546875,-0.048828125,-0.07421875,0.03125,0.028320312,-0.01953125,-0.018554688,-0.0703125,-0.02734375,0.014160156,-0.05859375,-0.08203125,-0.029296875,-0.029296875,-0.015136719,-0.008300781,0.09765625,-0.010253906,0.001953125,-0.002319336,0.05859375,0.05078125,0.0026855469,-0.0234375,0.01171875,0.041015625,0.052734375,-0.0061035156,-0.017578125,0.015625,-0.056640625,0.0056152344,0.017578125,-0.0061035156,0.008300781,0.0056152344,0.030273438,0.109375,-0.033203125,-0.056640625,-0.026367188,0.0625,0.005859375,0.0041503906,0.033203125,0.0625,0.060546875,0.0703125,-0.0390625,-0.041015625,-0.060546875,0.04296875,-0.015625,-0.0073242188,0.004638672,0.0009765625,0.0390625,-0.08203125,-0.03125,0.06640625,0.0234375,-0.0703125,0.0056152344,-0.025390625,-0.0625,0.033203125,-0.0703125,-0.07421875,-0.015625,0.002319336,0.0126953125,-0.044921875,0.06640625,-0.109375,0.008300781,0.029296875,-0.012207031,0.0859375,0.01171875,0.015136719,0.015625,0.033203125,0.009765625,-0.016601562,0.05859375,0.052734375,0.044921875,-0.037109375,0.060546875,-0.033203125,-0.03125,0.009277344,-0.018554688,0.0625,-0.06640625,0.0043945312,0.0028076172,0.05078125,-0.029296875,-0.0390625,0.0025634766,-0.08984375,-0.0015869141,0.04296875,-0.0546875,0.07421875,-0.1328125,0.0021972656,-0.026367188,0.0625,-0.0073242188,0.0031738281,-0.04296875,0.07421875,-0.04296875,-0.03125,-0.09375,0.04296875,0.0546875,-0.078125,-0.030273438,0.07421875,0.08203125,-0.03125,0.09765625,0.052734375,-0.12109375,-0.0068359375,-0.05859375,0.04296875,0.001953125,-0.11328125,0.011230469,0.0703125,-0.09375,-0.037109375,-0.05078125,-0.001953125,0.022460938,-0.0234375,-0.013183594,0.016601562,-0.022460938,0.078125,0.024414062,-0.037109375,0.09765625,0.11328125,-0.0146484375,-0.037109375,0.07421875,-0.022460938,-0.0013427734,0.001953125,0.033203125,-0.12109375
-0.06640625,0.078125,-0.029296875,-0.044921875,0.0107421875,-0.0009765625,0.056640625,-0.0068359375,0.011230469,0.03125,-0.03515625,-0.0234375,0.0075683594,-0.052734375,0.0043945312,-0.03515625,0.020507812,-0.001953125,0.026367188,-0.037109375,-0.04296875,0.11328125,0.020507812,-0.08203125,-0.029296875,-0.044921875,0.013671875,0.0009765625,-0.09765625,0.015625,0.0625,0.03515625,0.021484375,-0.022460938,0.0087890625,-0.060546875,0.056640625,-0.030273438,-0.025390625,0.0859375,-0.0146484375,0.046875,-0.033203125,0.001953125,0.0546875,-0.016601562,0.0031738281,-0.0390625,0.0703125,-0.041015625,0.048828125,0.044921875,0.025390625,-0.016601562,0.048828125,-0.078125,0.0087890625,0.046875,-0.03515625,0.05859375,0.0546875,0.025390625,0.021484375,0.03515625,-0.020507812,0.024414062,-0.05078125,-0.0048828125,0.0546875,-0.001953125,0.033203125,-0.07421875,0.013671875,-0.07421875,0.041015625,-0.048828125,-0.0078125,-0.10546875,-0.03515625,0.008300781,-0.056640625,-0.001953125,-0.056640625,0.030273438,0.01953125,-0.0031738281,0.022460938,0.016601562,-0.018554688,-0.0146484375,0.026367188,-0.033203125,-0.020507812,0.024414062,0.025390625,-0.044921875,0.0859375,0.026367188,-0.0007019043,0.0014648438,0.008300781,0.003540039,0.07421875,-0.05078125,0.125,-0.016601562,0.05078125,-0.07421875,0.015136719,-0.020507812,-0.003540039,0.078125,-0.013183594,-0.024414062,-0.06640625,-0.1015625,-0.052734375,-0.0546875,0.0073242188,-0.013183594,-0.0041503906,-0.025390625,-0.03515625,-0.0068359375,-0.0546875,0.021484375,0.0073242188,0.05859375,-0.0625,-0.0020751953,0.0048828125,-0.025390625,0.026367188,0.015136719,0.078125,0.07421875,0.041015625,-0.0048828125,0.041015625,0.030273438,-0.046875,-0.009765625,-0.05078125,-0.0234375,0.022460938,0.0703125,0.029296875,0.0073242188,-0.026367188,0.0234375,0.03515625,0.0703125,0.013671875,-0.0234375,-0.0048828125,-0.07421875,-0.03515625,-0.013183594,-0.0625,0.060546875,0.0703125,0.001953125,-0.078125,0.0625,-0.030273438,0.1328125,0.060546875,-0.005859375,-0.056640625,-0.06640625,-0.001953125,-0.0073242188,0.060546875,0.022460938,0.08203125,0.0234375,-0.03515625,0.010253906,0.09375,-0.006591797,0.009277344,-0.078125,-0.052734375,0.09765625,-0.0146484375,-0.109375,0.029296875,-0.01953125,0.0625,0.09375,0.0703125,-0.0546875,0.010253906,-0.014160156,0.014160156,-0.060546875,0.013183594,-0.033203125,-0.02734375,0.11328125,0.03515625,0.05859375,0.02734375,-0.041015625,0.006591797,-0.0061035156,0.005859375,0.021484375,0.0625,0.030273438,-0.03125,0.0061035156,-0.048828125,-0.0020751953,0.07421875,0.020507812,-0.0034179688,-0.0016479492,-0.026367188,-0.0859375,0.056640625,0.0390625,0.06640625,-6.866455e-05,0.005859375,-0.0390625,-0.001953125,-0.028320312,0.041015625,0.001953125,-0.078125,-0.013183594,0.021484375,0.0234375,-0.028320312,-0.048828125,0.026367188,-0.013183594,-0.041015625,-0.041015625,0.078125,0.0146484375,-0.012207031,0.037109375,-0.08203125,0.11328125,-0.013671875,-0.048828125,0.021484375,0.009277344,-0.012207031,0.10546875,-0.025390625,-0.005859375,0.018554688,-0.012207031,-0.0859375,-0.07421875,-0.00044250488,0.048828125,0.0625,-0.018554688,0.0703125,-0.08984375,0.016601562,0.09375,0.056640625,0.04296875,0.011230469,0.018554688,0.021484375,-0.009277344,0.078125,0.0625,-0.01171875,0.025390625,0.0703125,0.046875,-0.09375,0.015625,-0.0020751953,-0.024414062,0.001953125,0.052734375,0.0625,-0.012207031,0.015625,0.05078125,-0.05078125,-0.026367188,-0.056640625,0.017578125,-0.08984375,0.017578125,-0.078125,-0.022460938,-0.078125,-0.0625,-0.125,-0.05078125,-0.03125,-0.0859375,0.011230469,0.018554688,0.015625,-0.03515625,0.030273438,-0.0703125,0.0107421875,0.044921875,0.04296875,0.016601562,-0.04296875,0.0061035156,0.009277344,0.001953125,-0.006591797,0.140625,0.056640625,0.009277344,0.021484375,-0.0037841797,0.09375,-0.06640625,-0.021484375,0.08984375,0.001953125,0.013183594,-0.0625,0.005859375,0.060546875,-0.007080078,0.09765625,-0.044921875,-0.0703125,-0.0009765625,-0.0390625,-0.1328125,0.048828125,-0.001953125,0.060546875,-0.016601562,-0.046875,0.029296875,-0.0625,0.012207031,-0.044921875,-0.026367188,0.029296875,-0.044921875,-0.140625,-0.022460938,0.022460938,-0.037109375,-0.028320312,0.0703125,0.01953125,0.05859375,-0.044921875,0.037109375,0.0146484375,0.0703125,0.0031738281,0.0703125,-0.048828125,-0.028320312,-0.0546875,0.044921875,0.07421875,0.030273438,0.041015625,0.013183594,0.0234375,-0.0126953125,0.01953125,0.01171875,-0.04296875,0.025390625,0.0234375,-0.018554688,-0.05859375,0.015625,0.0020751953,0.06640625,0.09375,0.0126953125,0.015136719,0.00390625,0.048828125,-0.033203125,0.02734375,0.01953125,0.048828125,-0.0026855469,0.06640625,-0.07421875,0.05078125,0.009277344,0.1328125,0.009765625,-0.001953125,-0.0703125,0.1328125,-0.014160156,0.046875,0.033203125,0.024414062,-0.0107421875,-0.0703125,-0.078125,-0.013671875,-0.0234375,0.0703125,0.03515625,0.09375,0.001953125,0.0625,0.02734375,-0.0625,-0.033203125,0.08984375,-0.028320312,0.001953125,-0.037109375,-0.037109375,0.011230469,-0.0390625,0.021484375,-0.028320312,-0.07421875,-0.0390625,0.06640625,0.030273438,-0.020507812,-0.033203125,-0.0021972656,-0.0234375,-0.014160156,-0.052734375,-0.028320312,-0.001953125,0.044921875,0.060546875,0.028320312,-0.10546875,-0.016601562,0.0234375,-0.10546875,0.05078125,0.060546875,0.0625,-0.009765625,-0.03515625,-0.026367188,-0.041015625,-0.014160156,-0.013671875,0.017578125,-0.0390625,0.0009765625,-0.0037841797,-0.044921875,0.020507812,0.028320312,0.03515625,0.0020751953,0.018554688,0.017578125,0.08203125,-0.05859375,-0.03515625,0.0703125,-0.033203125,0.0024414062,0.048828125,-0.037109375,-0.05859375,0.0390625,0.016601562,0.02734375,-0.02734375,0.026367188,-0.009277344,0.016601562,0.04296875,-0.0703125,0.037109375,-0.06640625,-0.0234375,-0.0390625,0.009277344,-0.01953125,-0.09765625,-0.06640625,0.001953125,0.05078125,0.015625,-0.01953125,0.001953125,-0.001953125,0.09375,0.016601562,0.017578125,-0.016601562,0.0061035156,0.0390625,-0.0028076172,-0.037109375,0.0234375,0.03515625,0.009765625,0.013183594,0.0043945312,0.001953125,0.0032958984,0.025390625,-0.044921875,0.017578125,0.015136719,0.0546875,-0.041015625,-0.021484375,0.046875,-0.002319336,0.017578125,-0.04296875,0.06640625,-0.033203125,-0.0859375,-0.0009765625,-0.0546875,-0.033203125,-0.0075683594,0.024414062,-0.005126953,0.015625,-0.0625,0.0007324219,0.041015625,0.0625,-0.015136719,0.026367188,-0.07421875,0.01171875,0.018554688,0.1015625,0.0625,0.0010375977,-0.0061035156,0.0625,-0.007080078,0.015625,-0.020507812,-0.08984375,0.0009765625,0.03125,0.0859375,-0.026367188,0.005859375,0.013671875,0.0546875,0.017578125,-0.0041503906,0.001953125,-0.016601562,0.0107421875,-0.0032958984,-0.0390625,-0.08984375,0.044921875,0.030273438,-0.037109375,-0.013671875,0.0075683594,0.018554688,-0.0625,0.05859375,-0.041015625,0.05078125,-0.030273438,-0.0859375,0.07421875,0.0075683594,-0.0234375,-0.033203125,-0.078125,-0.021484375,-0.048828125,-0.044921875,0.029296875,-0.024414062,0.048828125,-0.0703125,-0.01953125,0.001953125,-0.009277344,-0.033203125,0.0037841797,-0.0063476562,-0.024414062,0.004638672,0.028320312,-0.015625,-0.06640625,0.0087890625,0.07421875,-0.02734375,0.08203125,-0.01953125,0.06640625,0.0703125,-0.010253906,0.001953125,-0.046875,0.03515625,-0.009765625,-0.05859375,0.015625,0.0126953125,0.0859375,0.009277344,-0.0107421875,-0.001953125,-0.0625,-0.0087890625,0.01171875,-0.033203125,0.078125,0.013183594,-0.016601562,-0.056640625,-0.0009765625,0.016601562,-0.056640625,-0.041015625,-0.022460938,-0.10546875,-0.078125,0.1171875,-0.02734375,-0.04296875,0.0390625,0.0234375,-0.025390625,0.0061035156,-0.010253906,0.044921875,0.08203125,0.0390625,-0.06640625,-0.02734375,-0.0390625,0.0029296875,0.056640625,-0.0107421875,-0.018554688,0.0703125,0.026367188,-0.021484375,-0.0234375,-0.041015625,-0.0390625,0.041015625,-0.056640625,-0.10546875,0.022460938,0.020507812,-0.013671875,-0.078125,0.0625,-0.012207031,0.015625,-0.016601562,-0.10546875,-0.060546875,-0.037109375,0.016601562,0.011230469,0.004638672,0.03515625,0.033203125,-0.03515625,0.017578125,0.015625,-0.001953125,0.0032958984,-0.028320312,-0.017578125,0.0009765625,0.06640625,-0.026367188,-0.052734375,-0.009765625,0.025390625,0.125,0.014160156,0.0068359375,-0.03515625,-0.015625,0.030273438,-0.04296875,0.0390625,0.007080078,0.0107421875,0.056640625,0.016601562,-0.017578125,0.060546875,0.125,-0.0013427734,-0.0234375,-0.037109375,0.037109375,0.013671875,-0.09375,-0.04296875,-0.02734375,0.078125,-0.022460938,0.0703125,-0.0703125,0.08203125,-0.09765625,0.0087890625,-0.025390625,-0.09375,-0.001953125,0.020507812,-0.0032958984,-0.015625,-0.009765625,0.001953125,0.0546875,0.04296875,0.0625,0.0126953125,-0.02734375,0.0073242188,-0.02734375,-0.09375,-0.06640625,-0.015625,-0.0859375,-0.006591797,-0.05859375,-0.04296875,0.033203125,-0.03125,0.0859375,0.1484375,0.08984375,0.052734375,0.0068359375,-0.03515625,-0.052734375,-0.1015625,-0.024414062,0.018554688,0.015625,-0.0078125,-0.044921875,-0.052734375,0.0020751953,0.024414062,-0.044921875,-0.03515625,0.015136719,-0.1015625,-0.05859375,-0.0546875,-0.0087890625,-0.018554688,-0.021484375,-0.021484375,0.03125,0.001953125,0.056640625,-0.013671875,0.001159668,-0.0087890625,0.1015625,0.016601562,0.015625,-0.014160156,0.060546875,0.046875,-0.013183594,-0.07421875,-0.0703125,-0.009765625,0.020507812,0.052734375,-0.044921875,0.041015625,0.11328125,-0.0625,-0.041015625,-0.0034179688,0.02734375,-0.0625,-0.033203125,0.0390625,-0.03515625,-0.037109375,-0.0703125,-0.0390625,0.0126953125,-0.03515625,-0.056640625,-0.044921875,-0.06640625,0.028320312,-0.03125,-0.048828125,0.016601562,-0.1015625,0.060546875,0.0053710938,-0.056640625,0.008300781,0.013671875,0.00390625,0.041015625,-0.08203125,-0.020507812,-0.033203125,0.0028076172,-0.024414062,0.056640625,-0.0026855469,0.06640625,0.025390625,-0.03515625,-0.033203125,0.056640625,-0.0087890625,-0.0546875,-0.06640625,0.0625,-0.037109375,0.029296875,-0.024414062,-0.009765625,-0.037109375,-0.0087890625,0.05078125,-0.03125,-0.005859375,-0.0126953125,0.0390625,-0.015625,0.03515625,0.02734375,-0.05859375,0.009765625,0.0087890625,-0.03125,0.0043945312,0.014160156,0.030273438,-0.08203125,0.041015625,-0.013671875,0.025390625,-0.03515625,-0.0041503906,-0.018554688,0.0063476562,0.013183594,0.011230469,-0.0625,-0.013183594,0.0390625,-0.018554688,0.001953125,-0.033203125,0.001953125,0.028320312,0.028320312,-0.020507812,0.0146484375,0.015625,0.01171875,-0.028320312,0.04296875,0.028320312,0.0390625,0.010253906,-0.013671875,-0.0078125,0.04296875,-0.08203125,-0.001953125,0.020507812,-0.030273438,0.03125,0.0703125,0.017578125,-0.003540039,0.041015625,0.046875,0.011230469,-0.028320312,-0.030273438,0.1015625,-0.0234375,0.08203125,0.056640625,-0.10546875,0.02734375,-0.05078125,0.01953125,0.0146484375,0.05078125,0.029296875,-0.041015625,0.03125,-0.0625,0.028320312,-0.041015625,0.022460938,-0.060546875,0.09765625,-0.033203125,-0.028320312,0.01953125,-0.009277344,0.013671875,-0.0073242188,-0.026367188,-0.078125,-0.048828125,0.09375,-0.017578125,-0.0028076172,-0.0390625,-0.029296875,0.009277344,-0.04296875,-0.0107421875,0.05859375,0.078125,0.025390625,-0.0146484375,-0.0625,-0.0859375,-0.0703125,-0.03515625,-0.009277344,-0.078125,-0.044921875,0.08203125,0.013183594,-0.013671875,0.07421875,-0.0048828125,-0.017578125,0.016601562,-0.03125,0.018554688
-0.041015625,0.0703125,0.09765625,0.0625,0.044921875,0.028320312,0.1171875,0.0048828125,0.010253906,0.109375,-0.0041503906,-0.08203125,-0.05078125,0.09375,-0.0390625,-0.044921875,0.048828125,-0.037109375,-0.03515625,0.01953125,0.009277344,-0.046875,0.0061035156,-0.0234375,0.033203125,-0.033203125,0.0703125,0.0018310547,-0.04296875,0.03125,0.024414062,-0.078125,-0.048828125,-0.05078125,-0.06640625,0.020507812,0.001953125,0.033203125,0.046875,-0.02734375,0.029296875,-0.0053710938,-0.11328125,-0.060546875,-0.006591797,0.015625,-0.046875,0.06640625,0.0390625,-0.01171875,-0.140625,-0.0390625,-0.041015625,-0.013183594,0.010253906,-0.044921875,0.09765625,0.033203125,0.041015625,-0.078125,0.012207031,-0.002319336,0.048828125,0.03125,-0.010253906,0.030273438,-0.0018920898,-0.10546875,-0.001953125,-0.052734375,0.09375,0.025390625,0.0546875,0.026367188,0.056640625,0.029296875,0.0625,0.013671875,-0.0126953125,0.07421875,0.037109375,-0.03515625,-0.11328125,0.052734375,0.017578125,0.1015625,0.015625,-0.048828125,0.017578125,0.03515625,-0.022460938,0.0390625,0.009277344,0.009277344,-0.024414062,-0.0024414062,0.07421875,0.021484375,0.0015258789,0.05859375,0.12109375,0.044921875,0.078125,-0.078125,-0.013183594,0.026367188,-0.0546875,0.046875,-0.0126953125,0.1171875,-0.010253906,-0.060546875,-0.018554688,0.07421875,0.013671875,-0.021484375,0.0078125,-0.018554688,0.041015625,-0.028320312,0.03515625,-0.0146484375,0.056640625,-0.026367188,-0.016601562,-0.0703125,-0.052734375,-0.0625,-0.025390625,0.0625,-0.0037841797,0.0546875,-0.06640625,-0.0859375,0.0390625,-0.05859375,-0.0234375,-0.0546875,0.0703125,-0.06640625,0.052734375,-0.0028076172,-0.02734375,-0.03125,0.0063476562,0.024414062,-0.0107421875,0.09375,-0.017578125,-0.044921875,-0.0056152344,-0.017578125,-0.09765625,0.0087890625,0.0107421875,0.0703125,0.04296875,0.048828125,0.0859375,0.060546875,-0.1015625,0.078125,-0.06640625,-0.060546875,-0.020507812,-0.024414062,-0.0234375,-0.016601562,0.04296875,-0.048828125,0.021484375,-0.0041503906,-0.020507812,-0.041015625,-0.046875,-0.03515625,0.028320312,0.0546875,-0.03125,0.028320312,0.0061035156,0.0390625,0.026367188,0.046875,-0.0859375,-0.08203125,0.001953125,0.03515625,0.0146484375,0.009277344,0.001953125,0.018554688,0.046875,-0.007080078,-0.0146484375,0.022460938,0.060546875,-0.09765625,-0.03125,-0.046875,0.0859375,0.028320312,0.0390625,0.01171875,0.0390625,0.015625,-0.06640625,0.0546875,-0.020507812,-0.033203125,0.004638672,-0.046875,0.048828125,-0.041015625,-0.0546875,-0.056640625,-0.009277344,-0.048828125,0.048828125,-0.15625,0.09765625,-0.01953125,0.046875,-0.000102996826,-0.005126953,0.11328125,-0.033203125,-0.01953125,-0.046875,0.056640625,0.030273438,-0.014160156,-0.05859375,0.05859375,0.02734375,-0.04296875,0.015136719,0.046875,0.0546875,-0.0234375,-0.009765625,0.017578125,-0.010253906,0.05078125,-0.0063476562,-0.078125,0.078125,0.078125,0.010253906,-0.0859375,-0.04296875,0.0087890625,0.12109375,-0.0036621094,0.078125,0.014160156,0.046875,0.0107421875,0.005126953,0.014160156,-0.0703125,0.015136719,0.056640625,-0.001953125,-0.028320312,-0.05859375,-0.056640625,0.0030517578,0.0075683594,0.0036621094,-0.1015625,0.0146484375,0.12109375,0.020507812,-0.0703125,-0.02734375,0.08203125,-0.001953125,-0.033203125,-0.03125,-0.021484375,0.046875,-0.005126953,-0.02734375,-0.05078125,0.004638672,0.078125,0.028320312,0.0053710938,0.03125,0.020507812,0.017578125,0.060546875,0.009765625,-0.0625,-0.0390625,0.007080078,-0.006591797,-0.0703125,-0.018554688,0.0126953125,-0.037109375,0.037109375,0.048828125,0.03515625,0.021484375,-0.025390625,0.09375,0.020507812,0.0859375,-0.028320312,-0.044921875,0.06640625,0.04296875,-0.006591797,0.0390625,0.03515625,0.03515625,0.025390625,0.013671875,0.0056152344,-0.024414062,-0.037109375,-0.0020751953,-0.021484375,-0.018554688,-0.03515625,0.0625,-0.009277344,-0.1484375,0.0703125,-0.025390625,-0.056640625,-0.0126953125,-0.048828125,0.048828125,0.056640625,0.01171875,-0.056640625,-0.033203125,-0.021484375,-0.0546875,0.037109375,-0.004638672,0.0020751953,-0.014160156,0.029296875,-0.014160156,0.056640625,0.033203125,-0.1015625,0.025390625,0.024414062,-0.025390625,0.04296875,0.08203125,0.078125,0.033203125,0.0625,0.08984375,-0.020507812,0.011230469,-0.009765625,0.021484375,-0.052734375,-0.037109375,0.08203125,-0.030273438,-0.03515625,-0.048828125,0.052734375,-0.1015625,0.0037841797,0.015136719,-0.0703125,0.009277344,0.033203125,-0.046875,-0.046875,-0.048828125,0.0234375,0.0625,-0.037109375,-0.020507812,-0.015136719,0.1484375,-0.0056152344,0.125,0.004638672,-0.021484375,0.0703125,-0.08203125,-0.03515625,-0.048828125,0.05859375,0.060546875,-0.0625,-0.037109375,-0.033203125,0.03125,-0.001953125,0.024414062,0.08203125,-0.026367188,-0.04296875,-0.006591797,0.037109375,-0.048828125,-0.05859375,0.015625,-0.07421875,0.033203125,-0.041015625,0.0041503906,-0.04296875,0.1015625,-0.017578125,0.0146484375,0.078125,0.016601562,-0.001953125,-0.0048828125,0.044921875,0.09375,0.06640625,0.010253906,-0.001953125,-0.0030517578,0.030273438,-0.0073242188,0.048828125,0.08984375,0.033203125,-0.08203125,-0.09375,0.013671875,0.0390625,0.0126953125,-0.0043945312,0.04296875,-0.02734375,0.0021972656,-0.0013427734,-0.033203125,0.03125,-0.0073242188,0.041015625,0.0390625,-0.015136719,0.08203125,-0.05078125,-0.046875,-0.013671875,-0.004638672,0.08203125,0.012207031,-0.01171875,0.041015625,0.05859375,0.022460938,-0.07421875,0.012207031,-0.0126953125,0.01953125,-0.010253906,0.021484375,-0.04296875,0.02734375,0.0025634766,0.037109375,0.078125,0.0625,-0.029296875,0.078125,-0.09765625,0.046875,0.044921875,-0.0025634766,-0.016601562,0.052734375,-0.09375,-0.028320312,0.03515625,0.0703125,0.018554688,0.078125,0.018554688,-0.06640625,-0.018554688,-0.060546875,0.044921875,-0.0087890625,0.03125,-0.029296875,-0.0390625,-0.033203125,0.013671875,0.0234375,0.033203125,0.044921875,-0.0703125,-0.001953125,0.016601562,0.0703125,0.026367188,-0.005859375,-0.020507812,-0.010253906,-0.03125,0.0056152344,-0.0859375,0.012207031,-0.06640625,0.05859375,-0.0703125,0.03125,-0.03515625,0.041015625,-0.0234375,-0.020507812,-0.033203125,-0.03125,0.0056152344,-0.016601562,-0.0041503906,-0.037109375,0.08984375,0.0021972656,-0.016601562,-0.0546875,-0.0126953125,-0.022460938,0.0061035156,-0.044921875,0.011230469,-0.001953125,0.033203125,0.0012207031,0.04296875,-0.017578125,0.048828125,-0.033203125,-0.0025634766,0.0390625,-0.05859375,0.08203125,-0.02734375,0.020507812,-0.0078125,-0.012207031,-0.0107421875,0.078125,0.05859375,-0.09375,0.0024414062,0.060546875,0.014160156,-0.08203125,0.056640625,0.030273438,-0.0234375,-0.012207031,-0.01171875,0.03125,0.0546875,-0.018554688,0.0041503906,-0.028320312,-0.016601562,0.0390625,0.020507812,-0.078125,-0.0041503906,0.009765625,-0.048828125,-0.0107421875,-0.044921875,0.044921875,0.025390625,-0.03125,-0.060546875,0.041015625,-0.029296875,-0.028320312,-0.025390625,-0.010253906,0.022460938,-0.05078125,-0.0024414062,0.0546875,-0.005859375,-0.0234375,0.026367188,-0.06640625,0.078125,-0.03125,0.033203125,-0.001953125,0.014160156,-0.013183594,0.00390625,-0.1171875,-0.08984375,0.052734375,0.0029296875,-0.011230469,-0.1015625,0.037109375,-0.0068359375,-0.0043945312,-0.033203125,-0.01171875,-0.0043945312,0.029296875,-0.08203125,-0.02734375,0.046875,0.013183594,-0.0546875,-0.033203125,-0.012207031,0.08203125,-0.078125,-0.07421875,-0.009277344,0.06640625,0.025390625,0.052734375,0.01171875,-0.0625,0.0026855469,0.10546875,0.041015625,0.078125,-0.03515625,0.024414062,0.041015625,-0.056640625,0.011230469,-0.029296875,0.0041503906,-0.05078125,-0.022460938,0.009277344,0.05078125,-0.060546875,-0.125,-0.020507812,-0.029296875,0.02734375,-0.0703125,-0.001953125,0.0703125,0.0546875,0.0009765625,0.09375,0.0234375,-0.06640625,0.0859375,0.0020751953,-0.0078125,0.015136719,0.0546875,0.060546875,-0.009765625,-0.0041503906,-0.03125,-0.02734375,-0.0859375,-0.048828125,0.08984375,0.044921875,-0.010253906,-0.044921875,-0.04296875,-0.037109375,-0.024414062,-0.06640625,-0.03125,0.06640625,0.010253906,0.008300781,0.002319336,-0.037109375,0.024414062,-0.018554688,0.06640625,-0.0625,-0.037109375,-0.1015625,-0.056640625,0.001953125,-0.0087890625,0.0037841797,0.037109375,-0.0126953125,0.052734375,0.033203125,0.013183594,-0.048828125,0.013671875,0.021484375,-0.021484375,-0.046875,-0.015625,-0.022460938,-0.024414062,0.0087890625,-0.03515625,0.0234375,-0.060546875,-0.030273438,-0.046875,0.037109375,-0.0703125,0.01171875,-0.037109375,-0.006591797,-0.016601562,-0.07421875,0.022460938,0.046875,0.06640625,-0.018554688,0.009765625,-0.0703125,0.0234375,0.03515625,0.0056152344,0.056640625,0.060546875,0.033203125,-0.05859375,0.033203125,0.029296875,-0.048828125,0.009765625,-0.0234375,-0.022460938,0.06640625,0.0032958984,-0.0087890625,0.009765625,0.03515625,-0.0859375,0.013183594,0.08203125,0.022460938,0.009765625,-0.06640625,-0.009277344,-0.022460938,-0.037109375,0.0107421875,-0.026367188,-0.017578125,-0.02734375,-0.0625,-0.021484375,-0.01953125,0.044921875,-0.009765625,0.10546875,-0.012207031,0.0546875,-0.001953125,0.001953125,-0.001953125,-0.016601562,0.0703125,0.0043945312,0.0390625,0.005859375,0.0010375977,0.016601562,-0.0107421875,0.0625,-0.020507812,0.037109375,-0.015625,-0.0063476562,0.001953125,0.0390625,0.017578125,0.0234375,0.033203125,0.08984375,0.0859375,0.03515625,-0.0073242188,0.012207031,0.078125,0.017578125,0.046875,0.056640625,0.05078125,0.0063476562,-0.0390625,0.001953125,-0.025390625,0.037109375,0.033203125,-0.0390625,-0.07421875,-0.0126953125,-0.09375,-0.06640625,-0.020507812,0.006591797,0.021484375,-0.014160156,0.05859375,-0.044921875,0.025390625,0.0087890625,0.033203125,0.030273438,0.046875,-0.001953125,-0.044921875,0.07421875,0.06640625,-0.0703125,-0.01953125,0.0234375,-0.052734375,0.052734375,0.030273438,-0.056640625,-0.020507812,-0.06640625,0.013183594,-0.013671875,-0.0390625,-0.037109375,0.03125,-0.005859375,0.06640625,-0.029296875,0.0703125,0.033203125,-0.037109375,-0.08203125,-0.030273438,0.015625,-0.0625,-0.041015625,0.04296875,-0.046875,0.0010986328,-0.0061035156,-0.10546875,0.033203125,-0.0859375,0.001953125,-0.030273438,0.0020751953,0.03515625,0.09765625,-0.026367188,0.03515625,-0.009277344,-0.07421875,0.09375,0.016601562,0.0146484375,0.015136719,-0.0078125,-0.033203125,0.0390625,-0.013183594,-0.0075683594,0.05078125,0.005859375,0.013671875,-0.0234375,0.021484375,-0.024414062,-0.033203125,0.060546875,-0.048828125,-0.041015625,-0.022460938,0.060546875,-0.1015625,-0.041015625,0.008300781,0.026367188,0.022460938,-0.0625,-0.04296875,-0.0075683594,0.0041503906,-0.037109375,-0.06640625,0.0020751953,0.001953125,-0.052734375,0.037109375,0.09765625,0.056640625,0.011230469,-0.078125,0.0625,0.0024414062,-0.0043945312,-0.010253906,-0.024414062,-0.0703125,-0.0234375,0.08203125,0.005859375,-0.020507812,0.010253906,-0.0043945312,-0.04296875,0.013183594,-0.0009765625,0.041015625,-0.0546875,-0.056640625,0.03515625,-0.08203125,0.015625,0.041015625,0.021484375,0.012207031,-0.02734375,-0.01953125,0.001953125,0.1015625,-0.037109375,-0.0020751953,0.048828125,0.037109375,-0.04296875,0.029296875,-0.09375,0.025390625,-0.001953125,0.048828125,0.03515625,-0.009765625,0.012207031,-0.037109375,-0.007080078,-0.018554688,0.020507812,-0.033203125,-0.0625,-0.033203125,0.020507812,-0.041015625,0.0009765625,0.044921875,-0.037109375,-0.03125,-0.028320312,-0.03125,-0.012207031
0.0063476562,-0.030273438,0.07421875,-0.109375,0.04296875,0.0028076172,0.07421875,-0.010253906,-0.025390625,-0.001953125,-0.044921875,0.052734375,-0.026367188,-0.05859375,-0.1015625,0.078125,-0.052734375,-0.006591797,0.012207031,0.048828125,-0.01953125,0.018554688,0.06640625,0.056640625,-0.018554688,0.048828125,-0.029296875,-0.056640625,-0.03515625,-0.0703125,-0.08203125,-0.10546875,-0.009765625,-0.03515625,0.013671875,-0.0009765625,0.0036621094,-0.028320312,0.01953125,-0.028320312,-0.024414062,0.09375,0.03125,-0.001953125,0.140625,-0.052734375,-0.0078125,-0.011230469,-0.022460938,0.0390625,-0.0048828125,0.015136719,-0.009277344,0.0703125,-0.017578125,0.0703125,0.0546875,0.016601562,-0.0078125,-0.021484375,0.0034179688,-0.0390625,-0.028320312,-0.0009765625,0.022460938,0.1015625,0.013183594,0.05078125,0.06640625,-0.0234375,0.0234375,0.11328125,-0.030273438,-0.05078125,0.0625,-0.030273438,0.09375,-0.1953125,0.041015625,-0.0546875,-0.08203125,0.037109375,-0.0625,0.001953125,-0.046875,-0.109375,0.0859375,0.0625,-0.01171875,0.0087890625,0.016601562,-0.07421875,-0.07421875,0.029296875,0.041015625,-0.025390625,-0.001953125,-0.004638672,0.0010375977,-0.05078125,-0.0061035156,0.028320312,-0.030273438,0.005859375,0.030273438,0.015136719,0.044921875,-0.0625,-0.052734375,-0.078125,-0.0390625,0.08984375,-0.08984375,0.0063476562,0.0234375,-0.052734375,-0.028320312,-0.02734375,-0.02734375,0.041015625,-0.014160156,-0.01953125,-0.0546875,0.0030517578,-0.020507812,-0.012207031,0.09765625,0.0859375,-0.046875,-0.046875,-0.03515625,-0.024414062,-0.06640625,0.024414062,0.06640625,-0.01953125,-0.009765625,0.03125,0.0546875,0.140625,-0.009765625,-0.0075683594,0.0546875,0.0390625,-0.09375,0.033203125,0.017578125,0.01953125,-0.07421875,0.03125,0.022460938,-0.01171875,0.037109375,0.0546875,0.016601562,-0.052734375,-0.008300781,0.00390625,0.1484375,0.008300781,-0.0625,-0.028320312,-0.0234375,-0.0036621094,-0.06640625,-0.0068359375,0.006591797,0.0703125,-0.016601562,-0.033203125,0.018554688,0.0025634766,-0.048828125,-0.01171875,-0.0146484375,-0.04296875,0.04296875,0.05078125,0.12109375,-0.0107421875,-0.018554688,0.0029296875,-0.0625,-0.018554688,0.0026855469,-0.001953125,-0.078125,0.0703125,-0.011230469,0.025390625,0.012207031,0.0107421875,0.010253906,0.06640625,0.0703125,-0.025390625,0.078125,0.01953125,0.0063476562,0.001953125,-0.0068359375,0.048828125,-0.041015625,-0.07421875,-0.041015625,0.014160156,-0.033203125,0.028320312,-0.020507812,0.014160156,-0.012207031,-0.044921875,-0.021484375,0.0043945312,-0.05859375,-0.02734375,-0.08984375,-0.029296875,0.1328125,0.016601562,-0.05859375,-0.018554688,0.005126953,0.00032043457,0.01953125,-0.048828125,-0.1484375,-0.078125,0.01953125,-0.0390625,-0.041015625,0.048828125,-0.026367188,0.03125,-0.0053710938,-0.05078125,-0.03125,-0.140625,-0.041015625,0.05078125,-0.01953125,-0.037109375,0.016601562,0.0031738281,-0.046875,0.1484375,-0.012207031,0.01953125,-0.0234375,-0.001953125,0.05859375,-0.01953125,0.018554688,0.009765625,-0.08984375,-0.016601562,0.078125,0.029296875,0.0043945312,-0.017578125,-0.022460938,0.01171875,-0.033203125,0.060546875,0.01953125,-0.0546875,0.041015625,-0.010253906,-0.013183594,0.04296875,-0.0034179688,0.0073242188,0.06640625,0.009277344,0.0026855469,-0.0234375,0.08984375,0.03125,-0.078125,-0.021484375,0.0048828125,0.02734375,0.012207031,0.048828125,-0.0146484375,-0.10546875,0.013671875,0.013671875,0.0043945312,-0.0087890625,-0.044921875,0.03515625,0.018554688,0.03125,0.11328125,0.009765625,-0.001953125,-0.026367188,-0.015625,0.0028076172,0.041015625,-0.0034179688,0.0107421875,-0.028320312,-0.0126953125,-0.048828125,-0.04296875,-0.1640625,-0.022460938,-0.06640625,-0.041015625,-0.009765625,0.078125,0.0012817383,-0.078125,-0.009277344,0.044921875,-0.044921875,0.021484375,0.028320312,0.033203125,-0.030273438,0.0041503906,0.020507812,0.0036621094,-0.0087890625,0.037109375,-0.0234375,-0.12109375,-0.041015625,-0.013183594,0.037109375,0.014160156,-0.03125,-0.013671875,0.0009765625,-0.015136719,-0.02734375,-0.007080078,-0.026367188,-0.017578125,-0.08984375,0.009765625,0.033203125,-0.0859375,-0.033203125,-0.05078125,0.001953125,0.044921875,-0.09375,-0.016601562,-0.016601562,-0.037109375,0.0625,-0.01953125,0.05078125,-0.022460938,0.016601562,0.016601562,0.008300781,-0.037109375,0.013671875,-0.007080078,-0.013183594,-0.0107421875,0.0625,0.0625,0.046875,-0.022460938,-0.0625,-0.078125,-0.011230469,-0.0056152344,0.0061035156,0.0037841797,0.017578125,-0.044921875,0.12109375,0.04296875,-0.048828125,-0.0107421875,0.0546875,-0.08203125,-0.04296875,-0.033203125,0.0625,0.052734375,0.033203125,-0.033203125,0.0390625,-0.028320312,0.033203125,0.0703125,0.011230469,0.09375,0.008300781,0.022460938,0.04296875,0.018554688,0.03125,-0.078125,0.008300781,-0.006591797,-0.07421875,-0.026367188,-0.03515625,0.020507812,0.09765625,-0.02734375,-0.056640625,-0.017578125,-0.0859375,-0.0056152344,-0.052734375,-0.0036621094,-0.022460938,-0.0075683594,0.05078125,0.022460938,-0.022460938,-0.0021972656,0.0390625,-0.046875,0.0068359375,-0.017578125,-0.0546875,-0.012207031,-0.06640625,-0.011230469,-0.0061035156,-0.001953125,-0.056640625,-0.06640625,-0.037109375,0.09765625,0.0087890625,-0.1015625,0.009277344,0.0053710938,0.0041503906,-0.0078125,-0.05078125,-0.018554688,-0.044921875,0.028320312,-0.02734375,0.022460938,-0.07421875,0.03515625,0.078125,-0.06640625,0.06640625,-0.011230469,0.05859375,-0.09375,0.05859375,-0.1171875,-0.044921875,0.052734375,-0.026367188,0.0146484375,0.005126953,-0.08984375,0.010253906,-0.0029296875,-0.026367188,-0.046875,-0.060546875,0.012207031,-0.0703125,-0.026367188,-0.008300781,-0.026367188,0.029296875,-0.017578125,-0.0859375,0.020507812,-0.013671875,-0.056640625,-0.09765625,-0.016601562,-0.0234375,-0.021484375,-0.001953125,0.0053710938,0.025390625,0.07421875,0.02734375,-0.009277344,-0.01953125,-0.024414062,0.041015625,-0.017578125,-0.017578125,-0.002319336,0.008300781,0.02734375,-0.04296875,0.033203125,0.001953125,0.0625,0.048828125,-0.07421875,-0.0234375,-0.09765625,-0.017578125,-0.030273438,0.04296875,-0.011230469,-0.006591797,-0.048828125,-0.018554688,-0.08984375,-0.0107421875,-0.001953125,-0.0009765625,-0.014160156,0.018554688,0.0146484375,0.0546875,0.0859375,-0.021484375,-0.044921875,-0.02734375,-0.016601562,-0.0625,0.078125,0.0146484375,0.044921875,-0.0107421875,0.0034179688,-0.011230469,-0.046875,0.030273438,0.009277344,0.0625,0.017578125,0.0020751953,-0.03515625,-0.07421875,-0.10546875,0.0546875,0.015625,0.022460938,-0.01171875,0.060546875,-0.046875,0.01953125,-0.0546875,-0.041015625,0.0034179688,-0.022460938,-0.013183594,0.009765625,-0.046875,0.12109375,-0.0234375,0.06640625,0.001953125,-0.016601562,0.048828125,0.010253906,0.012207031,-0.09375,-0.001953125,0.0009765625,0.048828125,-0.0063476562,0.025390625,-0.015625,-0.03125,-0.015625,-0.033203125,0.078125,-0.037109375,-0.052734375,0.026367188,0.041015625,-0.02734375,0.08984375,0.022460938,-0.00390625,-0.0625,-0.0087890625,0.052734375,0.028320312,-0.009765625,-0.0546875,0.08203125,-0.0859375,-0.0021972656,0.011230469,0.037109375,-0.052734375,-0.001953125,-0.044921875,0.056640625,-0.07421875,-0.03515625,0.041015625,0.01171875,-0.04296875,-0.05078125,0.056640625,0.0390625,0.017578125,0.0061035156,-0.012207031,0.041015625,0.0625,0.0056152344,-0.037109375,0.0546875,0.029296875,-0.0087890625,0.15625,0.024414062,0.025390625,-0.0026855469,0.08203125,-0.03515625,-0.010253906,0.015136719,0.05859375,-0.0234375,-0.029296875,0.001953125,0.046875,-0.140625,-0.08203125,-0.03125,0.009765625,-0.004638672,0.0546875,0.02734375,-0.026367188,0.005859375,0.046875,-0.03125,-0.041015625,0.04296875,0.041015625,0.09375,-0.0859375,0.0024414062,-0.044921875,-0.037109375,-0.022460938,-0.015625,-0.0061035156,0.037109375,-0.013671875,-0.015625,-0.03515625,-0.0087890625,0.028320312,0.0625,-0.0390625,0.020507812,-0.0625,0.024414062,0.056640625,-0.0859375,-0.078125,0.033203125,0.0126953125,0.018554688,-0.029296875,-0.044921875,-0.03515625,0.0025634766,0.018554688,-0.10546875,0.022460938,0.0146484375,-0.017578125,0.11328125,0.06640625,-0.015625,-0.060546875,0.09765625,-0.0234375,0.020507812,-0.0546875,-0.00390625,-0.1328125,-0.003540039,-0.033203125,-0.052734375,0.015625,-0.001953125,0.05078125,0.056640625,-0.078125,0.044921875,0.013183594,-0.010253906,0.013671875,-0.078125,0.02734375,-0.0146484375,0.012207031,0.09375,0.0043945312,-0.06640625,-0.04296875,0.09765625,-0.03515625,-0.06640625,0.030273438,-0.03515625,0.025390625,0.033203125,-0.052734375,-0.0078125,-0.046875,-0.0075683594,-0.0087890625,-0.046875,0.0390625,0.08203125,0.03125,0.025390625,0.033203125,-0.07421875,-0.01171875,0.04296875,-0.05078125,-0.0031738281,0.0234375,0.06640625,-0.037109375,0.0546875,0.052734375,-0.041015625,0.07421875,-0.052734375,-0.012207031,-0.0703125,-0.05859375,-0.026367188,0.052734375,0.041015625,0.06640625,0.037109375,-0.056640625,0.0703125,0.001953125,0.01171875,-0.048828125,0.009277344,-0.030273438,-0.033203125,-0.0625,-0.03125,-0.009765625,0.0037841797,-0.026367188,-0.0029296875,0.0859375,0.05078125,0.03515625,0.05078125,0.025390625,-0.041015625,0.037109375,0.037109375,0.030273438,-0.009765625,0.017578125,-0.08203125,0.020507812,-0.052734375,-0.048828125,0.008300781,-0.1484375,-0.021484375,-0.007080078,0.008300781,0.025390625,-0.022460938,-0.024414062,0.052734375,0.03125,0.0068359375,-0.017578125,-0.0025634766,0.0146484375,-0.001953125,-0.0859375,0.0234375,-0.03125,0.028320312,0.041015625,-0.044921875,-0.0546875,0.0234375,-0.037109375,-0.013671875,-0.0032958984,0.026367188,-0.1015625,-0.0056152344,0.013671875,0.033203125,0.044921875,-0.01953125,0.08984375,-0.021484375,0.0703125,0.029296875,-0.10546875,-0.03515625,-0.08984375,0.022460938,-0.140625,-0.013183594,0.0859375,0.037109375,-0.0625,-0.04296875,-0.09375,0.03515625,-0.07421875,0.025390625,-0.09765625,0.08984375,-0.030273438,0.1015625,-0.041015625,-0.009277344,-0.028320312,-0.09765625,-0.010253906,-0.015625,0.037109375,-0.07421875,-0.0859375,-0.028320312,0.12109375,0.022460938,0.0390625,-0.0028076172,0.05859375,-0.0030517578,-0.05078125,-0.04296875,0.052734375,0.029296875,-0.060546875,-0.041015625,0.0390625,0.025390625,-0.02734375,-0.041015625,0.033203125,-0.0625,-0.056640625,-0.007080078,-0.017578125,-0.05078125,-0.015136719,0.046875,0.018554688,0.0107421875,0.030273438,-0.018554688,0.037109375,-0.02734375,0.0703125,0.020507812,-0.0703125,0.03125,-0.0234375,-0.016601562,-0.0107421875,0.0126953125,-0.0126953125,-0.0053710938,-0.0234375,0.0078125,-0.0625,0.022460938,0.04296875,-0.078125,0.03515625,0.001953125,0.04296875,0.0087890625,0.015136719,-0.0625,-0.0025634766,0.001953125,0.06640625,-0.0126953125,-0.037109375,-0.025390625,0.028320312,-0.048828125,0.007080078,0.0078125,0.060546875,0.017578125,-0.04296875,-0.016601562,0.052734375,0.046875,-0.09375,-0.05078125,-0.0075683594,-0.020507812,0.06640625,-0.017578125,0.0703125,-0.125,-0.013183594,0.007080078,0.015625,0.010253906,0.09375,0.037109375,0.012207031,-0.017578125,0.029296875,0.15625,0.017578125,0.028320312,0.0087890625,-0.008300781,-0.06640625,-0.024414062,0.01953125,0.0087890625,0.0390625,-0.009277344,0.0146484375,0.02734375,-0.09765625,-0.018554688,-0.016601562,0.0029296875,0.109375,-0.04296875,-0.03515625,0.037109375,-0.001953125,-0.02734375,0.0024414062,-0.01953125,0.1171875,0.004638672,-0.015136719,-0.037109375,0.012207031,-0.030273438,-0.044921875,-0.03515625,-0.028320312,-0.08984375,-0.044921875
-0.0234375,-0.02734375,0.0068359375,0.05078125,-0.0146484375,0.012207031,-0.03515625,-0.033203125,-0.01953125,0.013671875,-0.0546875,0.060546875,-0.001953125,-0.0036621094,0.029296875,-0.046875,0.08203125,0.07421875,-0.029296875,0.0703125,-0.140625,0.078125,0.0390625,0.09375,0.012207031,0.009277344,0.033203125,-0.024414062,0.002319336,-0.014160156,0.013183594,-0.0146484375,-0.033203125,0.017578125,0.026367188,0.04296875,-0.0068359375,-0.08203125,-0.001953125,0.030273438,0.1171875,-0.06640625,-0.078125,0.078125,0.008300781,0.018554688,-0.005126953,0.06640625,0.05859375,0.07421875,0.046875,0.020507812,0.07421875,-0.025390625,0.014160156,-0.056640625,0.01171875,0.08203125,-0.025390625,-0.0087890625,-0.04296875,0.0546875,0.0234375,0.0078125,0.010253906,0.03515625,-0.044921875,0.052734375,0.037109375,0.0037841797,-0.0625,-0.03515625,-0.004638672,-0.0625,-0.0126953125,-0.0703125,-0.020507812,-0.1015625,-0.0703125,-0.044921875,-0.03125,-0.037109375,0.033203125,0.0390625,0.033203125,0.07421875,-0.048828125,0.05078125,0.026367188,0.005126953,0.0234375,0.11328125,-0.0032958984,-0.03125,0.09375,-0.026367188,-0.048828125,0.008300781,0.0005493164,-0.0009765625,0.0703125,-0.001953125,-0.008300781,0.020507812,-0.001953125,0.022460938,-0.046875,0.0234375,-0.041015625,-0.03515625,0.0087890625,-0.041015625,0.011230469,0.028320312,-0.021484375,0.0390625,-0.0146484375,-0.010253906,0.048828125,-0.001953125,-0.0625,0.03515625,0.001953125,0.002319336,0.03515625,-0.0031738281,-0.033203125,0.060546875,0.04296875,-0.0234375,-0.046875,0.0625,0.013183594,0.03125,-0.010253906,0.06640625,0.014160156,0.0078125,0.1015625,0.0043945312,-0.03515625,0.060546875,0.078125,0.001953125,-0.0390625,0.05859375,-0.06640625,-0.0703125,0.05859375,-0.0078125,0.0859375,-0.020507812,0.024414062,0.07421875,0.060546875,0.028320312,-0.044921875,0.07421875,-0.028320312,-0.056640625,-0.0546875,-0.037109375,0.1328125,-0.052734375,-0.017578125,0.08203125,0.013671875,-0.0625,0.11328125,-0.0703125,-0.018554688,-0.0234375,0.025390625,-0.0063476562,-0.0043945312,-0.02734375,0.044921875,0.021484375,0.04296875,0.06640625,-0.001953125,-0.005859375,-0.011230469,0.029296875,-0.016601562,0.0859375,-0.028320312,0.06640625,-0.009277344,0.09375,-0.1015625,0.033203125,0.03125,-0.0075683594,-0.046875,0.01171875,0.052734375,-0.001953125,-0.020507812,-0.001953125,0.09765625,0.1015625,0.044921875,0.017578125,-0.001953125,0.0703125,-0.02734375,-0.056640625,0.044921875,-0.03515625,0.041015625,0.046875,0.022460938,-0.046875,-0.0390625,-0.033203125,0.021484375,-0.07421875,0.052734375,-0.1171875,0.052734375,-0.0063476562,-0.0053710938,0.00044250488,-0.048828125,0.0390625,-0.041015625,0.0087890625,0.0234375,0.009277344,-0.060546875,0.0703125,-0.044921875,-0.044921875,0.056640625,-0.06640625,-0.048828125,0.0126953125,0.04296875,-0.11328125,0.09375,0.0625,0.025390625,0.016601562,-0.078125,0.1328125,-0.0034179688,0.078125,-0.029296875,0.0026855469,-0.005859375,-0.01953125,-0.08984375,-0.0390625,-0.020507812,0.056640625,0.022460938,-0.056640625,0.013183594,0.010253906,0.020507812,0.030273438,0.009765625,0.05859375,0.013671875,0.1015625,0.08203125,0.037109375,0.033203125,-0.09375,0.0390625,-0.052734375,0.10546875,-0.041015625,-0.0146484375,-0.046875,0.016601562,-0.05078125,-0.0234375,0.046875,-0.030273438,0.06640625,-0.03125,0.0107421875,-0.026367188,0.0107421875,-0.018554688,0.022460938,-0.05078125,-0.046875,0.048828125,-0.0703125,-0.024414062,-0.056640625,-0.09765625,0.0234375,0.078125,0.08984375,-0.03515625,-0.03515625,-0.010253906,-0.037109375,0.015136719,0.0546875,0.020507812,-0.025390625,0.0078125,0.048828125,-0.030273438,-0.024414062,0.041015625,0.022460938,-0.001953125,-0.02734375,-0.0073242188,0.0073242188,0.029296875,-0.0546875,0.022460938,0.020507812,-0.0546875,-0.048828125,0.009765625,0.03515625,-0.03125,0.0546875,0.044921875,0.025390625,-0.0078125,0.044921875,0.022460938,-0.041015625,-0.05078125,0.06640625,0.001953125,0.052734375,-0.048828125,-0.020507812,0.001953125,-0.04296875,-0.016601562,-0.033203125,0.022460938,0.0234375,-0.060546875,-0.020507812,0.033203125,0.06640625,-0.04296875,0.016601562,0.07421875,0.0126953125,0.037109375,-0.056640625,0.044921875,-0.05859375,-0.1171875,0.033203125,0.021484375,0.04296875,-0.125,-0.0073242188,-0.0078125,-0.026367188,0.0073242188,-0.025390625,0.0625,0.0390625,0.0390625,-0.03125,0.07421875,0.026367188,-0.0030517578,0.140625,0.078125,-0.015625,-0.0390625,0.04296875,-0.017578125,0.041015625,0.0546875,0.0390625,-0.030273438,0.037109375,0.05078125,0.03125,-0.044921875,0.1328125,-0.078125,0.078125,-0.0546875,0.0063476562,-0.05078125,-0.01953125,-0.0078125,-0.041015625,0.008300781,-0.033203125,0.001953125,0.041015625,0.030273438,-0.02734375,-0.0859375,0.15625,0.0703125,-0.048828125,-0.014160156,0.1171875,0.03125,-0.09765625,0.0390625,-0.0390625,0.041015625,-0.0063476562,0.0146484375,-0.026367188,0.011230469,-0.0390625,-0.0126953125,-0.0087890625,0.026367188,0.0390625,0.03515625,0.015625,-0.0234375,-0.0234375,-0.037109375,0.020507812,0.046875,-0.0048828125,0.013671875,-0.037109375,0.0390625,0.046875,-0.052734375,0.033203125,0.0390625,-0.014160156,-0.109375,0.1171875,-0.078125,-0.03125,0.02734375,0.02734375,0.0546875,0.052734375,-0.044921875,0.015136719,0.0017089844,0.01171875,-0.044921875,0.028320312,0.015625,0.0028076172,-0.04296875,0.041015625,-0.024414062,-0.0009765625,0.0234375,0.030273438,-0.05859375,0.06640625,-0.046875,-0.024414062,-0.03515625,-0.056640625,-0.004638672,-0.001953125,0.03125,0.0037841797,0.0078125,0.0028076172,0.0068359375,-0.033203125,-0.022460938,-0.0703125,-0.056640625,0.021484375,-0.030273438,-0.03515625,0.013183594,0.0859375,0.08203125,-0.005126953,-0.0546875,0.0009765625,0.006591797,0.1171875,0.012207031,-0.005126953,0.0009765625,0.018554688,0.09375,-0.02734375,-0.026367188,0.078125,-0.02734375,0.01171875,-0.03125,0.01171875,-0.046875,-0.033203125,-0.029296875,0.010253906,-0.109375,0.056640625,-0.021484375,-0.025390625,0.012207031,-0.0703125,0.0390625,0.046875,0.0234375,0.044921875,0.013183594,0.060546875,-0.1328125,0.078125,-0.041015625,0.03125,0.015625,0.0009765625,0.078125,0.025390625,-0.05859375,0.029296875,0.0048828125,0.0031738281,-0.03125,-0.016601562,0.12109375,0.005126953,-0.0390625,-0.0390625,0.0009765625,-0.033203125,-0.0048828125,-0.00024414062,0.001953125,0.05078125,0.06640625,0.017578125,-0.0703125,-0.05859375,0.0032958984,0.030273438,-0.0703125,0.0014038086,-0.033203125,0.0234375,-0.056640625,-0.017578125,0.0036621094,0.056640625,0.011230469,-0.022460938,0.005126953,-0.0546875,0.125,0.009765625,-0.0053710938,-0.0390625,0.001953125,0.028320312,-0.010253906,0.009765625,-0.052734375,0.04296875,-0.0625,-0.033203125,0.052734375,0.07421875,0.0041503906,0.0036621094,-0.044921875,0.06640625,-0.052734375,0.029296875,0.07421875,0.041015625,0.15625,-0.041015625,0.013671875,-0.00390625,0.08984375,-0.078125,0.0126953125,0.022460938,-0.078125,0.08203125,0.08203125,0.025390625,0.026367188,0.060546875,-0.037109375,-0.06640625,-0.0546875,0.0546875,-0.013671875,-0.05859375,-0.020507812,-0.02734375,0.03515625,-0.056640625,-0.037109375,-0.04296875,0.029296875,0.07421875,0.048828125,-0.03515625,-0.07421875,-0.02734375,0.04296875,-0.009765625,-0.01953125,-0.018554688,0.052734375,0.013671875,0.026367188,0.021484375,0.033203125,0.056640625,0.037109375,-0.009765625,0.10546875,-0.0012207031,0.037109375,0.018554688,0.05859375,0.078125,0.008300781,0.041015625,0.041015625,0.08203125,0.07421875,0.017578125,-0.001953125,0.078125,-0.044921875,0.001953125,0.0234375,0.037109375,-0.010253906,0.020507812,0.05078125,0.05859375,-0.015625,0.03125,0.017578125,-0.08984375,0.056640625,-0.056640625,-0.06640625,0.03515625,-0.03515625,-0.11328125,0.04296875,0.0703125,0.08203125,0.0048828125,-0.030273438,-0.05078125,0.048828125,-0.1328125,-0.014160156,0.024414062,0.021484375,-0.006591797,0.0063476562,0.001953125,0.009277344,-0.0703125,-0.03515625,0.026367188,-0.0625,0.052734375,-0.044921875,0.024414062,0.013183594,-0.028320312,0.006591797,-0.06640625,-0.0234375,-0.021484375,0.037109375,-0.025390625,0.028320312,0.08203125,-0.046875,0.044921875,0.08984375,0.044921875,-0.0056152344,0.0032958984,0.012207031,0.0234375,0.0390625,-0.046875,0.021484375,-0.046875,0.08984375,0.125,-0.03515625,0.0703125,0.08984375,0.0546875,0.033203125,-0.1015625,0.0034179688,-0.046875,0.005126953,0.044921875,0.0234375,0.03125,0.0703125,0.0859375,0.05859375,-0.037109375,0.001953125,0.014160156,0.026367188,-0.0390625,0.001953125,-0.001953125,-0.1171875,0.0020751953,0.041015625,0.001953125,0.014160156,-0.041015625,0.048828125,-0.02734375,0.0024414062,-0.08203125,0.018554688,-0.030273438,0.03515625,0.024414062,0.018554688,-0.07421875,-0.060546875,-0.0107421875,-0.0075683594,-0.0107421875,-0.078125,0.052734375,0.05078125,-0.1015625,-0.03125,0.078125,0.017578125,0.0073242188,0.08203125,0.046875,0.0546875,0.037109375,0.052734375,0.044921875,0.0043945312,0.016601562,0.0859375,0.0029296875,0.046875,0.078125,0.0015258789,0.01953125,-0.125,-0.0390625,0.006591797,-0.013671875,-0.044921875,0.022460938,-0.01171875,-0.048828125,0.0032958984,0.09765625,0.03125,0.020507812,0.024414062,-0.0126953125,0.03125,0.08984375,-0.024414062,0.05859375,-0.0859375,-0.0107421875,0.04296875,-0.078125,0.013183594,0.03125,-0.01171875,-0.03515625,-0.02734375,-0.060546875,0.030273438,-0.0073242188,-0.0053710938,-0.024414062,0.013671875,0.052734375,0.07421875,-0.08203125,0.037109375,0.0032958984,0.033203125,-0.0625,0.041015625,-0.046875,-0.024414062,-0.0061035156,0.001953125,0.03515625,0.0061035156,-0.033203125,0.03125,0.0859375,-0.017578125,0.013183594,-0.0234375,-0.07421875,-0.03125,0.009277344,-0.0703125,0.018554688,-0.05078125,0.052734375,0.033203125,0.07421875,0.07421875,-0.013671875,-0.009765625,-0.0068359375,0.021484375,-0.046875,-0.037109375,0.015625,0.033203125,-0.003540039,0.009765625,-0.12109375,0.03515625,-0.033203125,0.033203125,-0.0061035156,0.052734375,-0.08203125,-0.03125,-0.052734375,0.009277344,-0.01953125,-0.05078125,-0.0703125,0.0146484375,0.0146484375,0.024414062,-0.0048828125,0.037109375,0.014160156,0.05859375,-0.0061035156,0.048828125,-0.0009765625,-0.026367188,-0.046875,-0.09375,-0.04296875,0.11328125,0.026367188,-0.0859375,0.001953125,-0.021484375,0.0087890625,0.09375,0.09375,-0.01953125,-0.037109375,0.0625,-0.026367188,0.011230469,0.024414062,-0.033203125,-0.016601562,0.01953125,0.026367188,-0.0048828125,-0.046875,-0.021484375,0.04296875,-0.03125,0.017578125,-0.052734375,-0.007080078,0.0234375,-0.0390625,0.0234375,-0.09375,-0.028320312,-0.005126953,0.056640625,-0.04296875,-0.044921875,-0.05078125,0.01953125,-0.028320312,0.06640625,0.0087890625,0.08984375,-0.026367188,0.010253906,-0.0087890625,0.001953125,0.041015625,-0.048828125,0.029296875,-0.04296875,0.010253906,-0.0390625,-0.041015625,-0.022460938,-0.025390625,0.052734375,0.060546875,0.06640625,0.02734375,0.08203125,0.0063476562,-0.025390625,0.048828125,0.02734375,0.046875,0.06640625,-0.044921875,0.015136719,0.1015625,0.009765625,-0.022460938,-0.037109375,0.04296875,0.052734375,-0.009277344,-0.013183594,0.0107421875,0.056640625,-0.09375,0.033203125,-0.052734375,0.018554688,0.026367188,0.04296875,0.001953125,-0.030273438,0.0078125,0.04296875,0.024414062,0.052734375,-0.125,-0.060546875,-0.07421875,-0.02734375,0.030273438
-0.009277344,-0.03515625,-0.0041503906,0.0068359375,-0.0024414062,0.0043945312,-0.008300781,-0.0390625,0.02734375,-0.05859375,-0.09765625,-0.060546875,0.041015625,-0.0625,-0.06640625,-0.0390625,-0.016601562,0.048828125,0.0859375,-0.078125,0.025390625,-0.06640625,-0.0703125,-0.026367188,0.046875,0.10546875,-0.0043945312,0.0390625,-0.016601562,-0.046875,-0.052734375,-0.07421875,-0.017578125,0.0107421875,0.001953125,0.0126953125,0.052734375,-0.044921875,-0.037109375,0.0056152344,-0.0234375,0.0078125,0.05078125,-0.06640625,-0.020507812,-0.02734375,0.0390625,0.03125,0.060546875,0.001953125,0.044921875,0.052734375,0.028320312,-0.013183594,0.0061035156,-0.001953125,-0.056640625,-0.0021972656,0.0061035156,0.033203125,-0.08203125,-0.0107421875,0.017578125,0.028320312,-0.037109375,0.048828125,-0.060546875,-0.0041503906,0.028320312,0.0703125,-0.0546875,-0.078125,-0.016601562,-0.01953125,-0.041015625,-0.029296875,-0.025390625,0.1015625,0.06640625,0.0009765625,-0.060546875,0.044921875,-0.048828125,0.0390625,-0.0859375,-0.01953125,0.05078125,-0.041015625,0.0053710938,-0.0087890625,-0.026367188,-0.025390625,-0.05859375,0.052734375,-0.033203125,0.04296875,0.005126953,0.016601562,0.00076293945,-0.041015625,-0.03515625,0.0041503906,0.033203125,0.04296875,0.033203125,-0.001953125,-0.060546875,-0.08984375,0.010253906,0.0234375,-0.0625,0.0068359375,0.037109375,-0.024414062,0.017578125,0.09765625,-0.030273438,0.041015625,0.021484375,0.0041503906,0.03125,0.008300781,0.03515625,0.004638672,-0.011230469,0.015136719,0.03515625,-0.001953125,0.048828125,0.026367188,-0.028320312,-0.033203125,0.07421875,-0.021484375,-0.03515625,-0.033203125,-0.08203125,-0.0029296875,-0.0859375,0.0625,0.0063476562,0.029296875,0.016601562,0.017578125,-0.0048828125,-0.037109375,-0.017578125,-0.0078125,-0.028320312,0.041015625,0.078125,0.018554688,0.0625,0.078125,-0.028320312,0.030273438,-0.03515625,-0.022460938,0.11328125,0.020507812,-0.017578125,-0.010253906,-0.05078125,0.09375,-0.03125,-0.0024414062,0.003540039,-0.013183594,-0.01953125,0.0546875,0.0703125,-0.03515625,0.0703125,0.0703125,-0.029296875,0.07421875,0.016601562,0.0016479492,0.060546875,0.0146484375,-0.026367188,-0.05859375,0.05078125,0.01171875,-0.052734375,0.048828125,-0.07421875,0.048828125,0.00390625,-0.01953125,0.030273438,-0.030273438,0.0126953125,-0.01953125,-0.037109375,0.0703125,-0.0043945312,-0.037109375,0.041015625,0.0053710938,-0.052734375,0.0234375,-0.056640625,-0.016601562,0.0859375,-0.0009765625,-0.052734375,-0.046875,-0.03125,0.0075683594,-0.0068359375,-0.018554688,-0.022460938,-0.028320312,0.0625,0.016601562,0.0390625,0.028320312,0.048828125,0.037109375,0.030273438,0.09375,0.0625,-0.00016021729,-0.0546875,0.08984375,-0.01953125,-0.01171875,0.06640625,0.03125,0.048828125,0.030273438,-0.0390625,0.02734375,-0.03125,-0.026367188,-0.0075683594,-0.0234375,-0.024414062,-0.041015625,0.0546875,-0.03125,0.025390625,-0.024414062,-0.037109375,-0.025390625,0.0068359375,0.0056152344,0.025390625,0.037109375,0.05078125,-0.024414062,-0.07421875,-0.08984375,0.001953125,0.037109375,-0.0107421875,-0.024414062,0.0012817383,-0.030273438,0.0107421875,-0.033203125,0.017578125,-0.03125,-0.041015625,-0.001953125,0.02734375,-0.033203125,-0.015625,0.08984375,-0.044921875,-0.02734375,0.026367188,-0.015625,-0.025390625,-0.05859375,-0.05078125,0.0043945312,-0.024414062,-0.001953125,-0.024414062,-0.05078125,-0.09765625,-0.025390625,0.048828125,-0.010253906,0.0546875,-0.0126953125,-0.012207031,-0.037109375,-0.0014038086,-0.06640625,-0.03125,0.030273438,0.01953125,0.024414062,-0.046875,0.0068359375,-0.029296875,-0.06640625,0.0625,-0.005859375,-0.016601562,0.1328125,-0.041015625,0.048828125,-0.052734375,-0.06640625,0.030273438,-0.030273438,0.011230469,0.037109375,-0.0625,-0.08203125,-0.0146484375,0.0126953125,-0.05859375,-0.028320312,0.0703125,0.016601562,-0.0043945312,0.008300781,0.11328125,-0.07421875,-0.0061035156,0.001953125,-0.013671875,0.014160156,0.04296875,-0.001953125,-0.048828125,0.012207031,-0.0859375,-0.044921875,-0.0546875,0.018554688,-0.005126953,-0.0625,0.01171875,-0.017578125,0.008300781,0.012207031,-0.01953125,0.04296875,-0.016601562,0.017578125,0.037109375,0.009277344,-0.001953125,0.05078125,0.037109375,-0.018554688,0.0390625,0.037109375,-0.0025634766,0.0028076172,0.09765625,-0.020507812,-0.013183594,-0.013671875,-0.03515625,-0.03515625,0.0036621094,-0.014160156,-0.04296875,0.0126953125,-0.05859375,-0.0390625,-0.0146484375,0.020507812,0.05078125,0.03125,0.002319336,0.018554688,0.014160156,-0.03125,0.0546875,-0.013671875,0.0053710938,-0.001953125,-0.12109375,-0.03125,-0.022460938,-0.025390625,-0.041015625,-0.01953125,-0.0859375,-0.024414062,-0.009765625,0.04296875,-0.020507812,0.09765625,-0.0625,0.060546875,-0.048828125,-0.001953125,-0.001953125,-0.03125,0.033203125,0.028320312,-0.1015625,0.0061035156,-0.0073242188,-0.0126953125,-0.0028076172,-0.0020751953,0.009277344,-0.0625,0.033203125,0.04296875,0.03125,0.02734375,-0.048828125,-0.044921875,0.010253906,0.0041503906,0.0078125,-0.0087890625,0.0234375,-0.0234375,-0.0107421875,0.046875,0.05859375,0.001953125,0.04296875,-0.016601562,-0.029296875,-0.037109375,-0.1171875,-0.02734375,-0.052734375,-0.140625,-0.017578125,-0.0107421875,-0.0017089844,0.013671875,0.02734375,0.0087890625,-0.024414062,0.009765625,-0.0031738281,-0.048828125,0.013183594,-0.013671875,0.060546875,-0.044921875,-0.007080078,0.03515625,0.060546875,-0.012207031,-0.05078125,0.03515625,-0.028320312,-0.0390625,-0.016601562,-0.044921875,0.015625,-0.03125,0.017578125,-0.0625,-0.0703125,-0.0703125,0.009765625,-0.0390625,0.030273438,0.0126953125,-0.022460938,-0.1328125,-0.026367188,0.078125,0.029296875,0.015625,0.010253906,0.001953125,0.0061035156,-0.041015625,-0.109375,0.0009765625,0.033203125,0.0087890625,0.11328125,-0.052734375,0.078125,0.018554688,0.0703125,-0.0703125,-0.005859375,0.011230469,0.0703125,-0.037109375,-0.0546875,-0.030273438,-0.018554688,-0.052734375,0.03515625,0.04296875,-0.0073242188,0.0126953125,0.0087890625,0.0056152344,-0.1015625,-0.0859375,-0.004638672,-0.03515625,-0.041015625,-0.05859375,-0.011230469,-0.029296875,0.0009765625,-0.052734375,0.046875,0.033203125,0.013183594,-0.020507812,0.0078125,0.016601562,-0.009277344,0.044921875,-0.01171875,0.08203125,-0.021484375,0.041015625,-0.046875,0.05859375,-0.009765625,-0.009765625,0.020507812,-0.0068359375,0.012207031,-0.020507812,-0.03125,0.015136719,-0.078125,0.01953125,-0.020507812,-0.026367188,-0.041015625,0.002319336,0.0146484375,0.0024414062,-0.02734375,0.037109375,0.024414062,-0.0390625,-0.016601562,-0.07421875,0.0859375,-0.0703125,-0.0546875,0.033203125,-0.033203125,0.001953125,0.0625,-0.07421875,0.030273438,-0.009765625,-0.0859375,-0.0703125,0.041015625,0.018554688,0.030273438,-0.021484375,0.037109375,0.048828125,-0.052734375,0.0107421875,-0.0043945312,0.037109375,-0.037109375,-0.041015625,0.01953125,-0.02734375,-0.03515625,-0.0087890625,-0.044921875,-0.020507812,0.01953125,0.0546875,0.056640625,0.01953125,0.07421875,0.024414062,0.0025634766,0.046875,0.018554688,-0.109375,-0.015625,-0.015136719,0.014160156,-0.017578125,0.022460938,0.08203125,0.0063476562,0.08984375,0.026367188,-0.048828125,0.03515625,-0.060546875,0.013671875,0.001953125,-0.037109375,-0.03515625,-0.03125,0.020507812,-0.046875,-0.029296875,0.0020751953,-0.00390625,0.015136719,-0.060546875,-0.029296875,0.017578125,-0.009277344,-0.04296875,0.06640625,-0.03515625,-0.0546875,0.052734375,-0.041015625,-0.078125,0.0126953125,-0.06640625,-0.020507812,-0.025390625,-0.026367188,-0.01953125,0.04296875,0.018554688,-0.01953125,0.0053710938,0.05859375,-0.052734375,-0.015136719,-0.10546875,-0.1015625,-0.0063476562,0.09765625,-0.10546875,-0.125,-0.001953125,0.009765625,-0.056640625,-0.05078125,-0.008300781,0.0107421875,0.013671875,-0.012207031,-0.0234375,0.013183594,-0.001953125,0.017578125,-0.05859375,-0.021484375,0.08203125,0.05859375,-0.01171875,-0.0107421875,-0.015136719,-0.044921875,0.0390625,-0.0625,0.024414062,0.04296875,-0.0390625,-0.05078125,-0.1015625,0.001953125,0.014160156,0.03515625,-0.033203125,-0.025390625,0.020507812,0.024414062,0.044921875,-0.004638672,0.0053710938,0.0625,-0.037109375,-0.05078125,-0.041015625,0.0703125,-0.0068359375,0.0390625,-0.033203125,0.013671875,-0.0041503906,-0.017578125,0.048828125,-0.08984375,-0.03125,0.1171875,0.03125,0.025390625,0.041015625,-0.09765625,-0.022460938,-0.020507812,-0.001953125,0.0703125,0.052734375,0.013183594,-0.0390625,-0.01953125,0.06640625,0.0234375,0.06640625,-0.0625,-0.0390625,0.025390625,0.00390625,-0.0703125,-0.0075683594,0.05078125,-0.0009765625,0.017578125,0.03125,-0.033203125,0.0234375,0.0546875,-0.037109375,-0.0043945312,0.015136719,-0.06640625,0.0053710938,-0.030273438,0.07421875,-0.037109375,0.021484375,-0.037109375,-0.0625,0.044921875,-0.07421875,-0.025390625,-0.07421875,-0.041015625,0.0041503906,0.009765625,-0.030273438,0.08203125,-0.125,-0.04296875,0.0041503906,0.018554688,0.017578125,-0.046875,-0.03125,-0.08203125,-0.060546875,0.001953125,0.044921875,0.0546875,0.033203125,-0.06640625,-0.08984375,0.09765625,0.044921875,-0.021484375,-0.0390625,0.005126953,0.010253906,-0.03125,0.033203125,0.0068359375,-0.06640625,-0.015136719,-0.05078125,-0.001953125,0.026367188,-0.0234375,-0.025390625,0.0036621094,-0.060546875,-0.0146484375,-0.006591797,0.0390625,0.008300781,0.07421875,0.0146484375,-0.041015625,-0.0087890625,0.006591797,0.037109375,-0.04296875,0.020507812,-0.0625,-0.028320312,-0.01171875,-0.08984375,-0.037109375,0.05078125,-0.022460938,-0.028320312,0.037109375,-0.08203125,0.024414062,-0.078125,0.0043945312,0.0859375,-0.1171875,-0.056640625,-0.01953125,-0.08984375,-0.0625,0.0703125,-0.052734375,-0.07421875,0.046875,0.001953125,-0.021484375,-0.017578125,0.03515625,0.011230469,0.048828125,0.007080078,-0.06640625,-0.001953125,-0.015136719,-0.010253906,0.001953125,-0.010253906,-0.033203125,0.021484375,-0.04296875,-0.07421875,0.0061035156,-0.020507812,0.010253906,0.022460938,-0.09765625,0.04296875,0.06640625,-0.021484375,-0.041015625,-0.01953125,-0.029296875,0.033203125,0.004638672,0.10546875,0.037109375,-0.037109375,-0.029296875,-0.078125,0.037109375,-0.01953125,0.030273438,0.060546875,0.009277344,0.052734375,0.0703125,-0.08984375,-0.01953125,0.044921875,-0.009277344,-0.001953125,0.0032958984,0.044921875,-0.044921875,0.03125,-0.04296875,0.03515625,-0.11328125,0.060546875,0.017578125,0.0625,-0.04296875,0.044921875,0.021484375,0.028320312,0.1328125,-0.01171875,-0.044921875,0.0703125,-0.056640625,-0.012207031,0.0063476562,0.037109375,-0.0056152344,0.029296875,0.022460938,-0.0061035156,-0.08203125,-0.003540039,-0.026367188,-0.0390625,0.0390625,0.021484375,-0.028320312,0.028320312,0.046875,0.014160156,0.052734375,-0.041015625,-0.006591797,0.04296875,0.0390625,0.016601562,-0.046875,-0.041015625,-0.005859375,0.025390625,0.029296875,0.046875,0.00390625,0.1015625,0.018554688,-0.008300781,-0.03515625,0.0126953125,-0.056640625,-0.08203125,0.017578125,-0.022460938,-0.021484375,0.015625,-0.04296875,-0.016601562,-0.05859375,-0.05078125,-0.056640625,-0.015625,0.001953125,0.0859375,-0.015625,0.017578125,-0.001953125,0.0703125,-0.0068359375,-0.09765625,-0.009277344,-0.09765625,-0.020507812,-0.020507812,0.0063476562,-0.026367188,0.026367188,-0.0859375,-0.041015625,-0.02734375,0.02734375,0.0234375,-0.056640625,0.060546875,0.046875,0.11328125,0.005126953,0.016601562,-0.060546875,-0.033203125,0.046875,-0.052734375,0.0703125,0.0703125,-0.015625,-0.016601562,0.01953125,0.01953125,0.010253906,0.0078125,-0.09375,-0.0061035156
